1045 100
http://www.w3.org/2000/01/rdf-schema#subClassOf -0.19067672 0.05670945 0.1683253 -0.23701434 -0.42636263 0.20343192 -0.10020834 0.16197301 -0.09063197 0.1868967 -0.108387224 0.22794521 0.01880376 0.34609503 -0.049833927 0.15702775 0.3322855 -0.3938636 -0.045745946 -0.22639701 -0.36216384 0.06886163 -0.24737985 0.22441095 0.081957564 -0.13453402 -0.10751284 0.19123906 0.44355562 0.11435416 0.17330037 -0.24098064 0.24473263 -0.026529664 0.21679482 -0.54448074 0.54485816 -0.13127328 0.166274 0.2136356 0.08937151 -0.12525235 0.28193125 0.09330548 0.046076566 0.25237945 0.05794579 0.08061712 0.30720508 -0.13329366 0.03233098 -0.5101309 -0.56434274 -0.14749676 0.36448476 -0.13289025 -0.16283745 0.25189623 0.21891776 0.16451016 0.25363755 0.075286925 -0.5849689 0.6340228 -0.27095458 -0.087364145 0.021703279 0.33939663 -0.1317432 0.3848194 0.044296995 -0.5251066 -0.31188038 -0.20131049 0.042621404 -0.13824831 -0.06711191 0.095768616 0.14491491 -0.15587717 -0.19998011 -0.045651913 -0.14034861 -0.00037944096 -0.22098586 0.39108458 -0.10062245 -0.35498348 -0.2651685 -0.11904759 0.18761823 0.5566595 0.027000323 0.040663075 0.27753317 -0.08589614 0.014023601 0.1448966 -0.086708374 -0.030909633
http://www.semanticweb.org/owl2vec#superClassOf -0.18355152 0.025412831 0.14548297 -0.2591304 -0.4270046 0.19749618 -0.11454405 0.15515865 -0.10228347 0.21495692 -0.12948948 0.20517255 0.026558967 0.35503894 -0.053096056 0.16032673 0.3198178 -0.39436445 -0.09120965 -0.23589279 -0.3881547 0.07672005 -0.21250938 0.23118111 0.110003985 -0.1426214 -0.11689259 0.18585184 0.4173414 0.09316967 0.1506267 -0.21900617 0.24132116 -0.042172182 0.19089817 -0.5623301 0.5470719 -0.14762092 0.21056637 0.19059233 0.1239044 -0.16162318 0.28820983 0.114261 0.043407552 0.2655941 0.019135235 0.05136494 0.31668082 -0.13224934 0.035635214 -0.5097104 -0.54993665 -0.14641505 0.36486456 -0.09562677 -0.20933703 0.2758173 0.23759243 0.1852756 0.23656382 0.057444405 -0.5713869 0.59647346 -0.28353435 -0.07557673 -0.019487975 0.3394477 -0.12655292 0.36693266 0.014078443 -0.54298526 -0.29617366 -0.18476889 0.054372553 -0.121731915 -0.045867097 0.09129752 0.15129705 -0.16402829 -0.18402782 -0.05656024 -0.11091323 0.017640216 -0.2179891 0.4032653 -0.08746537 -0.33553642 -0.30923125 -0.12728032 0.18273641 0.5512652 0.035957754 0.053498637 0.31691775 -0.12738258 0.022989927 0.16147667 -0.06803491 0.033741962
http://www.w3id.org/sounds/ontology/Sound -0.24147183 0.094469704 0.09115275 -0.3338122 -0.45068297 0.14399628 -0.1660121 0.3170576 -0.24143684 0.2314334 -0.20262569 0.2634167 0.13230766 0.3922853 0.051642727 0.13443874 0.18052821 -0.45603874 -0.11458848 -0.15515779 -0.4492614 0.11482736 -0.12501644 0.21181673 0.098220885 -0.20274803 0.018534822 0.3099214 0.36374304 -0.06147231 0.064615324 -0.15767151 0.055944268 0.05606113 0.22789815 -0.49384266 0.5870174 -0.13170047 0.17082565 0.16255006 0.08200184 -0.03160239 0.3202453 0.09920102 0.012435223 0.3092248 0.032110628 -0.0066032023 0.3214885 -0.22571917 -0.009532301 -0.49710742 -0.62992984 -0.25401643 0.43991518 -0.17397231 -0.20484814 0.30138698 0.16680706 0.24719518 0.2363343 0.021778584 -0.5939036 0.597237 -0.1991645 0.0034702807 -0.03412505 0.2527899 -0.1578458 0.24979985 0.06116356 -0.63229287 -0.3257731 -0.21717574 0.0563719 -0.09027781 -0.0639995 0.08979157 0.046745934 -0.1987283 -0.25287077 -0.1402615 -0.15789025 -0.02128017 -0.21426547 0.63468313 -0.10489582 -0.32052124 -0.3864596 -0.17761476 0.09884042 0.5457104 0.04177888 0.03943251 0.34627748 -0.24002467 0.14915608 0.23908742 -0.014801514 0.062454473
SubClassOf -0.27735054 0.032473184 0.05521015 -0.1240845 -0.31512454 0.21015568 -0.05168959 0.026321864 -0.20007753 0.094258696 -0.13429357 0.18594733 -0.02067214 0.33501753 0.0055748452 0.0851652 0.31585127 -0.3319508 -0.103687815 0.00080269465 -0.28990263 -0.024449825 -0.23765856 0.117625 0.09609983 -0.20863515 -0.05872459 0.15039891 0.1482412 0.09304805 0.18125905 -0.13714908 0.08220837 0.012635106 0.055277526 -0.43373454 0.43614846 -0.17116228 0.13118488 0.059985563 0.17468657 -0.027046233 0.35509422 0.094434805 -0.03742601 0.13302909 -0.019809451 0.06780564 0.23961826 -0.12296672 -0.12591042 -0.5312014 -0.42893884 -0.20992483 0.2864991 -0.089540206 -0.22599779 0.21128833 0.27668548 0.14478482 0.1681907 -0.09830166 -0.37129617 0.53436136 -0.025056968 -0.11230119 0.014659733 0.27631825 -0.06400825 0.25290677 -0.12170646 -0.42097598 -0.27233234 -0.118877806 0.008149518 -0.031812474 -0.12452866 0.10458387 0.14632735 -0.11579953 -0.17120594 -0.094861135 -0.04877294 -0.035844073 -0.22674252 0.39730307 -0.07797015 -0.18348075 -0.13290466 0.006922124 0.15224166 0.4048853 0.019350657 0.035631508 0.37755972 -0.0048931646 0.022671666 0.085135825 0.009673027 0.054724246
subclassof -0.16744974 -0.1209707 -0.075563475 0.33601493 -0.0882993 0.3815893 0.16814509 -0.22944418 0.22694795 -0.13013975 0.0057501895 -0.06822996 -0.15661597 0.260399 -0.28255388 0.17234515 0.4381789 -0.23201282 0.013751135 0.14381945 0.21354024 -0.13777883 -0.07290121 -0.36567086 -0.14487398 -0.5423004 -0.20816934 0.14534004 -0.30146426 0.2794699 0.29029712 0.03693138 0.24673976 -0.5391916 -0.29059836 -0.6191763 0.14387111 0.047582462 0.01731483 -0.14171334 0.16890328 0.013913579 0.23294143 0.26188347 -0.16057664 0.083470404 -0.15998255 0.18966357 0.25520265 -0.025603553 -0.5274988 -0.4851976 -0.29911652 -0.056718595 0.009570678 -0.06229939 -0.08201609 -0.15046622 0.31343272 -0.15389296 0.04008572 -0.5514952 -0.25525832 0.5807755 0.12313691 -0.24328285 0.028125362 0.2973337 -0.015733171 0.16183066 -0.15792906 0.048951473 -0.3595648 0.017624285 -0.29578084 0.23429456 -0.5629833 -0.24122573 0.27127627 -0.29616508 -0.16319402 0.22964709 0.06366268 0.026335 -0.28900936 0.22535713 0.26379222 -0.12591356 0.023497209 0.1541885 0.41609427 0.6175642 0.33240545 -0.10447025 0.36345914 -0.10450062 0.23422551 -0.16576573 0.4770457 0.21591035
http://www.w3id.org/sounds/ontology/hasMechanism -0.43391985 0.14666112 0.10595401 -0.3188288 -0.4699587 0.08379357 -0.15144455 0.061602134 -0.45918086 0.1176318 -0.17943327 0.30538744 0.118417755 0.45877647 0.18450104 0.059874244 0.33046782 -0.50136465 -0.19656797 -0.039566636 -0.5148896 -0.027552793 -0.22556372 0.23247775 0.2421427 -0.21229583 0.039536882 0.1495717 0.30302414 0.09681414 0.11287792 -0.1941912 -0.073899426 0.19095998 0.0866013 -0.5351464 0.5543139 -0.323711 0.24418983 0.05287756 0.3133218 0.011075082 0.43084747 -0.0061300015 -0.02465362 0.10439649 -0.102284245 0.082424685 0.3640956 -0.16788657 -0.036399934 -0.5497439 -0.5326274 -0.34713393 0.50894874 -0.21129341 -0.24970189 0.3969993 0.36233452 0.1440089 0.23736925 -0.09599576 -0.33839384 0.54301465 0.025759118 -0.00077136105 -0.12321675 0.26224262 -0.03326814 0.18393992 -0.12765822 -0.5724384 -0.27969983 -0.23606373 0.025156615 -0.08563939 -0.040697534 0.15561087 0.12585005 -0.09343459 -0.18250215 -0.15804587 -0.14335196 -0.05723651 -0.16964619 0.6143157 -0.22659059 -0.2240782 -0.21173713 -0.072686456 0.10463659 0.4214688 -0.0773439 0.13993321 0.4087598 -0.048295695 0.056639362 0.28250653 -0.07527502 0.05361458
sound -0.105593614 -0.123050205 0.0072736493 0.2787069 0.024699004 0.29781994 0.21283738 -0.34447318 0.27507722 0.06872967 -0.05367172 0.0058020675 -0.2322001 0.25865778 -0.09454031 0.05902004 0.58236605 -0.3268351 -0.107217155 0.122502975 0.10966152 -0.2845128 -0.21114533 -0.4451243 -0.1485577 -0.6233748 -0.10899279 0.10648912 -0.3443068 0.2664047 0.38596496 -0.15318929 0.31663293 -0.58726275 -0.449906 -0.4203333 0.010469832 -0.1215006 0.07953364 -0.023662578 0.063425645 0.11465599 0.33823282 0.25184825 -0.09393307 -0.011991769 -0.25981605 0.10092731 0.31170008 -0.055430718 -0.47446114 -0.47766432 -0.32699785 -0.010376559 0.018631266 -0.1524891 -0.043015894 -0.12883556 0.3558121 -0.16076748 -0.07431733 -0.5358533 -0.29279092 0.63911897 0.23700808 -0.19862129 0.06474708 0.48470628 0.23523915 0.16531059 -0.11350249 0.091645114 -0.42618236 -0.10775223 -0.2891055 0.43505555 -0.541066 -0.2713836 0.28772822 -0.1914401 -0.18487152 0.113846466 0.23414256 -0.0428062 -0.4476649 0.35108182 0.27568835 0.02277805 0.018989634 0.13876018 0.40065885 0.654415 0.36750147 -0.055333156 0.50793135 -0.045981504 0.18955578 -0.17091839 0.30303472 0.030355051
http://www.w3id.org/sounds/ontology/isMechanismOf -0.3037616 0.14536662 0.06155096 -0.3477341 -0.4918369 0.110404894 -0.13921416 0.11013094 -0.35000753 0.16041574 -0.18172424 0.26263678 0.09635127 0.465899 0.13088638 0.101978295 0.3607017 -0.4595389 -0.17680684 -0.13305023 -0.5178814 0.052921843 -0.18841511 0.20554364 0.2462945 -0.2149208 -0.012149586 0.112271495 0.37343833 0.07041819 0.1050574 -0.24583465 0.089789204 0.12929316 0.117037974 -0.55459136 0.5762093 -0.29912153 0.30455258 0.14854373 0.2795799 0.0072396793 0.40024135 -0.024400512 0.02161105 0.13302433 -0.08375874 0.09315272 0.3849307 -0.14950006 0.01065132 -0.5421697 -0.5814808 -0.26768926 0.53300637 -0.1836711 -0.16608752 0.35558936 0.3318679 0.13851856 0.16905047 -0.011506025 -0.4011841 0.59296423 -0.0901247 0.043068953 -0.09827005 0.30079365 -0.06164333 0.25110415 -0.06612111 -0.53457457 -0.28963858 -0.22801442 0.047189243 -0.09765604 -0.056390967 0.13708006 0.08162867 -0.08100696 -0.17315826 -0.13274214 -0.17391573 -0.061091125 -0.16921952 0.58340454 -0.19435376 -0.2650532 -0.26331258 -0.15186493 0.103216246 0.4988379 -0.055163324 0.11990524 0.36784548 -0.13425758 0.060362663 0.2589467 -0.084710896 0.031092942
http://www.w3id.org/sounds/ontology/InteractionWithObject -0.12835518 -0.0615964 0.024209848 -0.052297067 -0.2799974 0.23260567 -0.0262572 0.09268021 -0.027325103 0.20212176 -0.1543452 0.14841387 0.005655197 0.30028722 -0.045774154 0.1274629 0.2765648 -0.2860325 -0.04386079 -0.07267565 -0.24269435 0.060747314 -0.17119348 0.08738804 0.036522347 -0.22600895 -0.09941491 0.20179348 0.18789719 0.00047002948 0.13747582 -0.14900585 0.21929921 -0.14998004 0.07060056 -0.41232744 0.36827537 -0.0859058 0.16142444 0.12811384 0.013970022 -0.06279764 0.26618108 0.09463711 -0.049319 0.19627993 -0.03451559 0.033950802 0.26673335 -0.06070584 -0.093656935 -0.43008298 -0.4223594 -0.107202694 0.2452015 -0.05740005 -0.1417382 0.10211258 0.19535007 0.1443681 0.10810017 -0.025069755 -0.4474469 0.50265205 -0.087132186 -0.08677672 0.045452863 0.3156943 -0.07500141 0.2125745 0.014545473 -0.36521977 -0.30529222 -0.1544964 0.0018757458 0.003812093 -0.13060588 0.047101796 0.097313635 -0.14759865 -0.2057948 0.008875012 -0.039277382 -0.03367131 -0.21652368 0.36771944 0.041136276 -0.24541229 -0.2401755 -0.05634503 0.07669875 0.50932246 0.12134692 0.012714306 0.33827317 -0.14822835 0.11629782 0.074446075 0.040617242 0.085778296
some -0.6232993 0.039682012 -0.08584349 0.023201901 -0.22367235 0.24386117 0.038273856 -0.36379522 -0.5299025 0.058800094 -0.17184451 0.23023373 -0.15226379 0.5125366 0.18463457 -0.004330518 0.37548518 -0.42961085 -0.24945217 0.42931458 -0.21659903 -0.25308606 -0.28440368 -0.1932539 0.15084025 -0.37764528 -0.06524022 0.10447438 -0.2866785 0.14609583 0.24394898 -0.05602162 -0.1653919 0.090863466 -0.34511286 -0.43348917 0.29882285 -0.3616373 0.031655733 -0.1341919 0.3747292 0.18511866 0.6317541 0.08586218 -0.3483624 -0.14943746 -0.27554575 0.091665626 0.27258554 -0.08059472 -0.4469109 -0.65014386 -0.2949668 -0.47292292 0.27370203 -0.21642624 -0.27968535 0.08701466 0.47628775 0.0058313455 -0.0590452 -0.49856576 -0.08182981 0.5532427 0.5314661 -0.15441647 -0.038008932 0.37323546 0.28808483 0.006887895 -0.47674134 -0.22249626 -0.2445837 -0.02537753 -0.052363217 0.23018178 -0.332714 0.08489725 0.28310788 -0.100274876 -0.19489032 -0.12069283 0.14066559 -0.10107562 -0.27770963 0.5070534 -0.050061338 0.06776852 0.092387155 0.3248975 0.14184089 0.22194651 0.11772967 -0.08011825 0.629859 0.11415327 0.18025704 0.028993938 0.19012192 0.16270874
http://www.w3id.org/sounds/ontology/NonSpeech -0.110037476 -0.06200297 0.01468827 0.0018017472 -0.25610435 0.25558585 0.026212715 0.043441612 -0.006122437 0.12935324 -0.12411228 0.11046211 -0.053045224 0.2850608 -0.082594536 0.11130602 0.30232543 -0.23527859 -0.07161765 -0.0717429 -0.16788732 -0.0016976261 -0.15031353 0.030978126 0.0025389257 -0.2311615 -0.13063319 0.15590802 0.116822764 0.03948384 0.17763665 -0.14288338 0.22770402 -0.16464183 -0.0053616944 -0.39108106 0.33154735 -0.090629265 0.15060842 0.0838732 0.046777487 -0.035714343 0.25649285 0.121525176 -0.028200073 0.1664449 -0.033963904 0.055549543 0.23236799 -0.068002306 -0.17862982 -0.45781258 -0.3983471 -0.065512985 0.18226336 -0.045955747 -0.12023055 0.094632596 0.20135769 0.10283999 0.07993324 -0.090744145 -0.40435347 0.48132285 -0.042951345 -0.14254333 0.0621367 0.29357666 -0.057275634 0.20437905 -0.028776074 -0.300229 -0.27147755 -0.101627454 -0.038619418 0.017668813 -0.17296329 0.015656795 0.11914688 -0.12880656 -0.15354756 -0.0010725309 -0.0057415343 -0.020927168 -0.23999394 0.33313677 0.10373438 -0.18818761 -0.16726655 -0.035143405 0.11220217 0.47980714 0.13361312 -0.03468426 0.32280028 -0.12554884 0.12096853 0.05015684 0.07370312 0.097499445
http://www.w3.org/2000/01/rdf-schema#comment -0.13073216 -0.02065224 0.059646063 -0.2213897 -0.40697122 0.18414001 -0.10649508 0.22100413 -0.08946153 0.21710882 -0.1699786 0.14151561 0.06542509 0.3367389 -0.044594448 0.15873294 0.32322687 -0.3426278 -0.07719858 -0.18313938 -0.37592438 0.091870375 -0.18114054 0.19284356 0.14037925 -0.16766606 -0.0689613 0.21946563 0.31366935 -0.002387766 0.13166036 -0.1511808 0.18303935 -0.070782036 0.14880964 -0.53062874 0.49474314 -0.09776071 0.274721 0.15297155 0.06171607 -0.14079168 0.27399212 0.11558898 -0.005434263 0.29356477 -0.0201026 0.039303917 0.3175236 -0.086007945 -0.023788342 -0.47716904 -0.54194987 -0.13420692 0.37195167 -0.06309352 -0.19221236 0.25776643 0.1888916 0.1941948 0.15397136 0.033790313 -0.50254786 0.5416695 -0.2275431 -0.06897102 -0.031758063 0.30270082 -0.12122125 0.29155594 0.07455752 -0.4938827 -0.3038792 -0.21351844 0.0141269965 -0.06417563 -0.0706942 0.066062815 0.07512365 -0.21759829 -0.21317156 -0.042238113 -0.06378018 0.005456842 -0.23785713 0.45359758 -0.040406965 -0.31387156 -0.33437094 -0.11492032 0.08888529 0.54138625 0.090087615 0.052022893 0.35164917 -0.20901498 0.1007038 0.2006247 0.004445387 0.08956948
http://www.w3id.org/sounds/ontology/MovementSound -0.18358824 -0.012070463 0.042258702 -0.0752873 -0.27728337 0.21862923 -0.030649798 0.068465 -0.13743916 0.15550354 -0.13451758 0.15717833 -0.0003276305 0.333257 -0.038932916 0.08351063 0.2799398 -0.28464508 -0.08456994 -0.039472636 -0.23370966 0.011615535 -0.14724238 0.06426984 0.047384176 -0.19705196 -0.090712346 0.19877036 0.12140468 0.020943645 0.15849422 -0.10828621 0.14100118 -0.06291037 0.038685806 -0.41991717 0.35768166 -0.13278404 0.15048897 0.041644804 0.09519476 -0.02950826 0.32263505 0.09900054 -0.045170452 0.18697824 -0.029466143 0.035358924 0.23564035 -0.06580302 -0.16072407 -0.46389315 -0.42728195 -0.15396018 0.25574887 -0.106565304 -0.16814356 0.15045671 0.22384976 0.14160539 0.10536433 -0.079700746 -0.3757813 0.5002421 -0.03937082 -0.11800009 -0.007931679 0.27478033 -0.029560165 0.19405614 -0.062905684 -0.37368417 -0.24635978 -0.11132395 -0.013547431 0.012571346 -0.14655764 0.06281116 0.099653445 -0.12627646 -0.16767992 -0.054690115 -0.04866881 -0.012319273 -0.216004 0.38067496 0.03532586 -0.20662701 -0.19794619 -0.018738946 0.10176258 0.4518549 0.09000127 -0.01957517 0.3674671 -0.10181821 0.09722794 0.10725957 0.06359974 0.07796483
http://www.w3id.org/sounds/ontology/Solid 0.0075232005 -0.08334802 -0.0040984014 0.026657779 -0.31398273 0.26222 -0.035887465 0.046193454 -0.032079533 0.37475708 -0.12460707 0.085649215 -0.05839352 0.39073038 -0.039258726 0.11254337 0.4648785 -0.28475964 -0.040580638 -0.20466577 -0.24236266 0.09566474 -0.21699551 0.18774197 0.20103775 -0.12152036 -0.21589945 0.03759369 0.34305143 0.032093916 0.2110474 -0.20133969 0.35697922 -0.1815048 0.002796253 -0.4842795 0.4199922 -0.09617385 0.30954558 0.20932943 0.021327903 -0.2522086 0.19368675 0.09178914 -0.09484312 0.20183909 -0.03308899 0.09487179 0.373537 0.07996448 -0.04934716 -0.5296097 -0.44245398 -0.13990946 0.31250355 -0.024638973 -0.06544251 0.015509412 0.22862183 0.06834538 -0.0972452 0.028884664 -0.4999998 0.46881613 -0.16135052 -0.123642735 -0.0036156254 0.49534482 0.028356144 0.4142809 0.007220428 -0.34676746 -0.2102383 -0.15837413 0.06449065 0.023569422 -0.03813647 0.13774891 0.14881091 -0.15567473 -0.18139455 0.008219992 0.017048482 0.044002872 -0.2858263 0.17468579 0.08412461 -0.32708895 -0.18756194 0.11556034 0.17618583 0.54645747 0.24507156 -0.031279173 0.3006079 -0.15516831 0.09064105 0.11011772 -0.095637806 -0.013944347
http://www.w3id.org/sounds/ontology/BodilyFunctionSound -0.23932728 0.016496692 0.036467407 -0.18192004 -0.34857115 0.14697413 -0.11565371 0.13044687 -0.2191 0.17145403 -0.15573186 0.20390202 0.027315605 0.37269422 0.022206485 0.09099796 0.24776278 -0.37666917 -0.09257422 -0.09953859 -0.26210785 0.046047922 -0.1516816 0.12184619 0.034922764 -0.20621368 -0.038041696 0.22939573 0.21398483 0.05299661 0.107207574 -0.15287551 0.07925446 -0.025507467 0.06744249 -0.48013538 0.44550693 -0.11798658 0.111722484 0.12046159 0.15163668 -0.03390671 0.36407745 0.12120761 -0.059425943 0.18021797 -0.004990152 0.043098193 0.27944055 -0.14199476 -0.13942795 -0.50812 -0.4789919 -0.21746819 0.30064225 -0.14331728 -0.16804658 0.2120159 0.22531617 0.13821779 0.17072888 -0.087379396 -0.43137103 0.48221406 -0.064755015 -0.094156206 -0.016414706 0.27043357 -0.056101132 0.21793689 -0.0416823 -0.46604353 -0.2590144 -0.16487773 0.029959958 -0.020686533 -0.12022302 0.07817968 0.13307853 -0.12926638 -0.21582893 -0.116868235 -0.090772614 -0.02230804 -0.20441692 0.45744443 -0.039433427 -0.21049726 -0.2378979 -0.063413724 0.11520802 0.4356086 0.033645295 -0.001593679 0.34053013 -0.12190404 0.12343015 0.15375584 0.020565243 0.10713426
http://www.w3id.org/sounds/ontology/Impact -0.2091825 -0.0020253847 0.0100872405 -0.13510887 -0.30191574 0.1380115 -0.031345382 0.05332558 -0.15443626 0.15928206 -0.16797093 0.15829404 0.030162452 0.34542745 0.022229597 0.097575344 0.28107786 -0.32302037 -0.108888716 -0.057834752 -0.2682357 0.01289068 -0.16772789 0.079882964 0.116861515 -0.24564907 -0.07666075 0.12779753 0.15275458 0.048807673 0.112785324 -0.16112101 0.1452634 -0.0467192 0.039705347 -0.4763645 0.36712798 -0.18546319 0.21653241 0.08123964 0.13790956 -0.02342309 0.32167608 0.08784116 -0.06406786 0.15018809 -0.077741615 0.058168862 0.29656392 -0.08646371 -0.14350106 -0.4539936 -0.4334324 -0.20066659 0.32543755 -0.13372251 -0.1504569 0.20138767 0.2906705 0.116957165 0.09431393 -0.0982953 -0.3505846 0.48257607 -0.019266365 -0.059387177 -0.009383405 0.2863742 -0.028636457 0.1941826 -0.099507354 -0.38774937 -0.24672025 -0.14982122 -0.008963787 -0.003624571 -0.10784547 0.106399156 0.08310711 -0.106089674 -0.17571369 -0.085841104 -0.0539403 -0.019215055 -0.18802705 0.42451692 -0.009141877 -0.19372647 -0.18803144 -0.04232936 0.11260829 0.43585148 0.048519306 -0.007483737 0.37511903 -0.13036627 0.1033122 0.1285486 0.034098137 0.087625936
http://www.w3id.org/sounds/ontology/ImpactSound -0.1863952 0.0026903842 0.028567467 -0.105316065 -0.29540378 0.2118729 -0.03526689 0.07623328 -0.12986429 0.11287393 -0.13104627 0.12328302 0.008655383 0.32813188 -0.038760714 0.07273104 0.29351905 -0.28754738 -0.11143926 -0.04179591 -0.23914053 -0.0065764566 -0.13203405 0.029019076 0.040528882 -0.21252893 -0.072295815 0.1713316 0.14059171 0.019067595 0.14049245 -0.11959305 0.11807762 -0.06878018 0.030258944 -0.4260917 0.3515355 -0.11550306 0.15660785 0.054444365 0.10845982 -0.04858405 0.30025756 0.10214775 -0.045569796 0.16726632 -0.05116278 0.050232947 0.26299682 -0.07132663 -0.17081816 -0.47692072 -0.4286676 -0.13974154 0.2474307 -0.09801498 -0.13154514 0.16965272 0.23687184 0.116982244 0.1056948 -0.09047902 -0.39013416 0.47850123 -0.04780635 -0.09495318 0.019472955 0.26790476 -0.05406813 0.20996998 -0.034574755 -0.35118905 -0.2879299 -0.11552964 -0.028619248 0.020614943 -0.17895772 0.0554237 0.13039789 -0.13231878 -0.15309864 -0.080306225 -0.06982692 -0.002690492 -0.20442462 0.40464962 0.027799966 -0.2003523 -0.17970876 -0.057590142 0.12062737 0.46976587 0.08100089 -0.009634954 0.32307175 -0.106974036 0.10033211 0.08463738 0.05838187 0.11668258
http://www.w3id.org/sounds/ontology/LocomotionSound -0.23518209 0.0058904663 -0.04466147 -0.24452731 -0.32060915 0.2629432 -0.04043818 0.21090242 -0.28496668 0.103932165 -0.27257425 0.14867969 0.096255116 0.34704128 0.04616025 0.1444653 0.28358418 -0.3463085 -0.19950505 -0.0015358342 -0.4159458 0.084331326 -0.14094132 0.13297081 0.14820035 -0.2060573 0.06308563 0.23772252 0.0735813 -0.11143918 0.12906648 -0.053734213 -0.012907201 0.023213394 0.1527864 -0.4065847 0.45876902 -0.15173508 0.26603672 -0.016504887 0.12504832 -0.00014916572 0.35777596 0.0062401835 -0.045978144 0.25353232 -0.0063531604 -0.030541401 0.3256318 -0.15873256 -0.06919402 -0.47120667 -0.5097583 -0.24243781 0.34744772 -0.057849783 -0.20362638 0.27995506 0.27481782 0.24798022 0.088381 -0.087037325 -0.4248033 0.5685738 -0.025869142 -0.034880653 0.009228497 0.23613212 -0.13161229 0.16716817 -0.020262813 -0.5117435 -0.28588367 -0.19218642 0.012242543 -0.040016327 -0.15201694 0.051264696 -0.019173436 -0.1409009 -0.2220729 -0.21510734 -0.092920296 0.012176853 -0.2059425 0.5873655 -0.10287673 -0.29513514 -0.273131 0.012717085 0.076853625 0.501269 0.046437103 0.059877608 0.40376487 -0.18666598 0.09724548 0.16186313 0.048923742 0.11473027
http://www.w3id.org/sounds/ontology/producedBy -0.34542033 0.054512903 0.09325211 -0.2381786 -0.37987676 0.11631839 -0.19511674 0.07941668 -0.2640593 0.25705716 -0.13314086 0.24852638 0.037326403 0.39450747 0.034876294 0.049145866 0.20000239 -0.4474027 -0.1576901 -0.096298546 -0.3460984 -0.008185716 -0.16172913 0.1701138 0.057530783 -0.22750185 -0.05388572 0.26286286 0.24733932 0.07655054 0.07256752 -0.098071724 0.07069194 -0.009835646 0.053581335 -0.51688164 0.51866233 -0.13767304 0.074617 0.098586954 0.17649071 -0.09244313 0.38229448 0.16043206 -0.07737288 0.23568642 -0.0394448 0.018026598 0.2191462 -0.15451677 -0.12543324 -0.496841 -0.46199542 -0.24698281 0.28159985 -0.112796694 -0.30117017 0.28331622 0.23305757 0.16233224 0.21678215 -0.104136884 -0.43168893 0.48725724 -0.09825968 -0.06586227 -0.061822616 0.2950165 -0.06745692 0.26718363 -0.10234504 -0.52366424 -0.25934651 -0.12084084 0.036854014 -0.014857231 -0.08855742 0.09547925 0.22385699 -0.16031815 -0.22150198 -0.08804895 -0.09013547 0.024139082 -0.18208511 0.45858544 -0.01831626 -0.15239342 -0.270797 -0.0794465 0.12168748 0.3753751 0.06875255 0.041417032 0.36465034 -0.07648899 0.10949009 0.20705314 0.028653676 0.13364284
http://www.w3id.org/sounds/ontology/SoundMechanism -0.18155819 0.05241967 0.042746894 -0.21710856 -0.42018142 0.13428381 -0.10995552 0.0923679 -0.24994323 0.2903758 -0.21161225 0.23300087 0.008971954 0.43706453 0.04674185 0.116663195 0.35162976 -0.3820185 -0.12987691 -0.18558604 -0.4006897 0.09146137 -0.16095121 0.20663002 0.20076744 -0.17109646 -0.12778571 0.0969626 0.36698285 0.04348685 0.10229703 -0.23944035 0.23680818 0.0019643481 0.07473571 -0.5609625 0.5077953 -0.19795713 0.31998736 0.17957231 0.14743775 -0.11815734 0.36796793 0.014816328 -0.037473716 0.14606471 -0.090303 0.093649246 0.36898157 -0.033104256 0.012645459 -0.5135231 -0.5450739 -0.24605186 0.47593224 -0.13178222 -0.1213537 0.23925203 0.30960426 0.10971445 0.0978582 0.065354064 -0.46282667 0.56034666 -0.117162295 0.0027696164 -0.074166596 0.3944916 -0.014978985 0.2985411 -0.03512641 -0.46363583 -0.22888884 -0.22236364 0.068935186 -0.09263895 -0.019063137 0.14728709 0.08704277 -0.10305844 -0.2194194 -0.08984458 -0.11867526 0.00017550259 -0.18336475 0.44115657 -0.066474736 -0.30399647 -0.28823578 -0.021217072 0.1450758 0.5122232 0.051073205 0.026831299 0.35910133 -0.19725071 0.07651659 0.21227175 -0.10710344 -0.011990299
http://www.w3id.org/sounds/ontology/ExplosiveSound -0.13865332 -0.05801397 0.009934937 -0.059364572 -0.24111553 0.18473196 -0.008249358 0.02459111 -0.0669651 0.12888084 -0.13043085 0.11906932 -0.01986296 0.32872632 -0.03149321 0.08514675 0.2930472 -0.25304568 -0.06657634 -0.051517617 -0.20057584 0.010539054 -0.14498773 0.032187745 0.0044435733 -0.23534843 -0.09304291 0.18540706 0.12241327 0.036057662 0.16327697 -0.14045805 0.1504727 -0.10916913 0.025084803 -0.39816678 0.3400893 -0.12938796 0.18322048 0.067508884 0.06421023 -0.008738488 0.29362428 0.11902214 -0.04559305 0.19011497 -0.054735925 0.055117887 0.24860783 -0.0546104 -0.19499871 -0.46040452 -0.40658265 -0.09831121 0.25471497 -0.08383378 -0.12057681 0.13796143 0.21020487 0.106888935 0.1012732 -0.10363608 -0.379821 0.4889206 -0.030025933 -0.10523737 0.02592161 0.28781524 -0.056839846 0.19406383 -0.061520994 -0.3013673 -0.27530363 -0.12303632 -0.039823625 0.023741527 -0.17445055 0.03562667 0.102577105 -0.15570989 -0.15211856 -0.054337934 -0.04790611 -0.011040318 -0.22714229 0.3684091 0.06465857 -0.18374403 -0.18072875 -0.05199779 0.12174066 0.4514377 0.111918986 -0.03652688 0.32530293 -0.10073795 0.1304474 0.08461419 0.08515699 0.091977604
and -0.44690704 0.09770119 -0.08894446 0.026354741 -0.14035276 0.19846702 0.11912113 -0.43403417 -0.4632954 0.09039949 -0.19438459 0.26364854 -0.16993031 0.52800506 0.20950778 -0.039614186 0.5305579 -0.4439637 -0.22509253 0.4269784 -0.1733982 -0.2266018 -0.26147985 -0.19252928 0.18604463 -0.47639078 -0.0751962 0.14065507 -0.29845744 0.16946425 0.32615134 -0.057612624 -0.070140354 -0.013420262 -0.40217963 -0.38446426 0.30702552 -0.40534934 0.057797745 -0.14685427 0.3663125 0.2251134 0.59455377 0.10286828 -0.3527275 -0.12356959 -0.3660655 0.15167132 0.2991724 -0.04468499 -0.4004658 -0.6201858 -0.25833964 -0.4079402 0.28132886 -0.23952132 -0.23911588 0.10023321 0.50165695 -0.06355876 -0.03968793 -0.54788953 -0.117596336 0.59573346 0.4996802 -0.069290355 -0.056928247 0.47589114 0.3374786 0.11123005 -0.46530944 -0.15027682 -0.21297823 -0.021206174 -0.076444305 0.3315485 -0.36997592 0.067024924 0.2984656 -0.12975922 -0.17383353 -0.120757535 0.1278065 -0.08538004 -0.30766973 0.4365211 -0.10796415 0.06386926 0.082075134 0.27717873 0.17236601 0.27009222 0.12629198 -0.06410263 0.67893606 0.15881488 0.11410513 0.04755352 0.15283272 0.07297147
http://www.w3id.org/sounds/ontology/BodyPart -0.1924888 -0.033264402 -0.04188857 -0.067384295 -0.26194414 0.27849093 -0.00168222 0.055491727 -0.17070726 0.09205189 -0.17495519 0.12606283 -0.023677772 0.2925222 -0.036956098 0.07690966 0.31877318 -0.24688034 -0.12865973 -0.005248456 -0.208593 -0.014003324 -0.19959733 0.019372666 0.03876028 -0.21652287 -0.05050985 0.1874901 0.028726842 0.03747556 0.16773473 -0.1211726 0.10891662 -0.11074534 0.02470101 -0.37922758 0.3456218 -0.12734725 0.19414786 0.031587046 0.116915844 -0.0016128172 0.3516556 0.06887684 -0.05489873 0.14890449 -0.036463745 0.018920347 0.2398288 -0.08370617 -0.1990838 -0.49033767 -0.4163246 -0.16293794 0.20718992 -0.060095582 -0.14247961 0.14977986 0.25690734 0.1677103 0.040884186 -0.119773395 -0.36360162 0.50005263 0.021728799 -0.14552605 0.036096625 0.2798568 -0.0463659 0.22220097 -0.09905053 -0.3747132 -0.26175296 -0.09620846 -0.05113935 0.017670987 -0.20453216 0.050528947 0.08328829 -0.11043036 -0.17084827 -0.12942933 -0.025050089 -0.004918614 -0.21536206 0.43058035 0.033750787 -0.18177447 -0.13272232 0.047535 0.10447582 0.43906242 0.05606393 0.012094667 0.3820985 -0.06325897 0.078777276 0.064882696 0.06857215 0.113600746
has -0.54265666 -0.17277582 -0.026092293 0.3240453 -0.09880763 0.2961372 0.17739452 -0.49115136 -0.24712618 0.06908131 -0.19308361 0.13964963 -0.274438 0.46145505 0.029677713 -0.017146789 0.51738125 -0.401766 -0.095790744 0.4972026 -0.0486429 -0.39572984 -0.32906595 -0.32115722 0.07384118 -0.5832003 -0.1749116 0.09388123 -0.47654212 0.20662999 0.35992685 -0.03421817 0.05871773 -0.16865346 -0.53168267 -0.58095276 0.18587615 -0.22645037 0.005988719 -0.17870696 0.23596886 0.15302698 0.5657113 0.26438227 -0.337527 -0.12280067 -0.40279892 0.17723411 0.27022636 -0.019289276 -0.656333 -0.7110738 -0.3114581 -0.4078442 0.14860858 -0.19953468 -0.28713095 -0.12505175 0.5235463 -0.10769661 -0.03969152 -0.65316546 -0.043838967 0.6262752 0.5714811 -0.32024622 -0.003570192 0.4684481 0.2499203 0.046180107 -0.491068 -0.0074663083 -0.43727654 -0.03661586 -0.1738808 0.48943073 -0.4577505 -0.09305881 0.499483 -0.22503904 -0.27818722 0.039896175 0.2909958 -0.110994324 -0.4546315 0.45591214 0.24471341 0.15397666 0.20446013 0.37757057 0.2518551 0.44740823 0.34435496 -0.17812249 0.79375565 0.08191466 0.29500312 -0.12452389 0.3137392 0.2827546
http://www.w3id.org/sounds/ontology/hasAcoustics -0.13306989 -0.059543513 -0.004530574 -0.2478078 -0.43065894 0.2109407 -0.11826052 0.33462965 -0.11990227 0.18788669 -0.24443668 0.12243493 0.15796039 0.33805394 -0.028716788 0.20773165 0.22987239 -0.3936885 -0.121006414 -0.097077064 -0.4130623 0.13703763 -0.16382466 0.22788745 0.14043826 -0.23769227 0.017660856 0.2946948 0.1782031 -0.13114567 0.11314112 -0.031492457 0.031695455 -0.067662545 0.1580281 -0.49523884 0.5001712 -0.050839365 0.3095417 0.055633444 -0.011829557 -0.12125506 0.19708404 0.10068453 0.0038584156 0.41774 -0.012014042 -0.02135193 0.28631487 -0.21156569 -0.0010295206 -0.45069534 -0.61474246 -0.16507214 0.413956 -0.04314148 -0.25534123 0.30560428 0.13106996 0.28830627 0.100067295 -0.015094829 -0.54175025 0.5396482 -0.2349331 -0.045926694 -0.026829105 0.24170631 -0.22440353 0.17016844 0.15723865 -0.5274224 -0.34687376 -0.23888077 0.025192507 -0.0030013754 -0.085922025 0.011804621 -0.008860736 -0.31019008 -0.22718157 -0.09288781 -0.042785734 0.036602702 -0.3023066 0.6224963 -0.014485755 -0.34102213 -0.4190761 -0.13809757 -0.0058085276 0.5739198 0.15442336 0.07934255 0.4177546 -0.3147457 0.13329259 0.2528709 0.08701722 0.19467434
http://www.w3id.org/sounds/ontology/DeformationSound -0.15184096 -0.04482891 0.015752308 -0.08133817 -0.28123307 0.17802528 -0.00873105 0.04973396 -0.08947336 0.11453446 -0.15080583 0.14325918 0.0070736883 0.32479033 -0.055032294 0.10751784 0.29900423 -0.27007043 -0.09456092 -0.042701855 -0.20667854 -0.014460058 -0.16507533 0.029334191 0.010080619 -0.24116519 -0.103899226 0.17541398 0.11874952 0.042942334 0.16680904 -0.118342504 0.18455847 -0.12598032 0.023759061 -0.40535188 0.33144957 -0.11025249 0.16773373 0.077555105 0.074259706 -0.01563938 0.30643213 0.10651526 -0.026930176 0.16073135 -0.036996193 0.059464432 0.24927743 -0.07911325 -0.16351339 -0.45563698 -0.42400455 -0.13487916 0.26797506 -0.09968104 -0.11701055 0.14766063 0.20153514 0.1108342 0.082720585 -0.10867864 -0.36373806 0.47232196 -0.047419112 -0.10147714 0.024314169 0.28368008 -0.048012134 0.22066015 -0.035235103 -0.29738253 -0.26061738 -0.12813553 -0.02617199 0.012783729 -0.17649199 0.037512254 0.13777742 -0.13533339 -0.17693762 -0.043425202 -0.044376574 -0.0073691374 -0.21250261 0.36981428 0.050530467 -0.19714926 -0.16415583 -0.04472581 0.09139973 0.45380673 0.09979422 -0.037347384 0.332503 -0.13367257 0.10577009 0.08974333 0.09147684 0.09572932
http://www.w3id.org/sounds/ontology/hasMaterial -0.03204231 -0.039388094 0.030116782 -0.045417484 -0.37856662 0.20226738 -0.07848045 0.00986599 -0.13970351 0.47224772 -0.12742142 0.16417247 -0.09146021 0.45527807 -0.0059654326 0.13269867 0.52102184 -0.37578002 -0.05034207 -0.1845325 -0.29915023 0.10133539 -0.29525372 0.28900433 0.35816896 -0.07296381 -0.22071494 -0.04421063 0.44243893 0.04086087 0.24301134 -0.2657528 0.37753963 -0.096071936 -0.032160204 -0.60094106 0.503577 -0.16809328 0.32336983 0.26817155 0.07730916 -0.26409236 0.2443082 0.06704111 -0.13418685 0.10942219 -0.093928896 0.13442336 0.43661934 0.10198496 0.056579016 -0.5463408 -0.44570887 -0.26586562 0.49357113 -0.047516823 -0.088454165 0.073862456 0.3298731 0.027235875 -0.08817314 0.11121703 -0.48758286 0.49014106 -0.17488424 -0.05751896 -0.071309336 0.60520875 0.044909228 0.48128197 -0.04125498 -0.3916049 -0.14208622 -0.20963955 0.13900284 -0.006872964 0.045953408 0.22864766 0.16093765 -0.1444438 -0.23842973 -0.023398291 0.017408077 0.06735527 -0.2658057 0.18226175 -0.05452724 -0.3165456 -0.2165642 0.17972942 0.23937249 0.5009026 0.21159998 -0.029274354 0.35764158 -0.14297289 0.061540913 0.15471172 -0.17312513 -0.10736573
http://www.w3id.org/sounds/ontology/isMaterialOf 0.08722483 -0.074245356 -0.0019283553 0.00041561434 -0.42237958 0.23068713 -0.051669057 0.06594646 -0.024399485 0.520923 -0.1362533 0.080645755 -0.068078645 0.42669067 -0.07750861 0.16683464 0.5332607 -0.3122263 -0.0021976274 -0.31546074 -0.26793948 0.16689351 -0.30671433 0.27864322 0.32230502 -0.018040411 -0.30973485 -0.046528924 0.5112045 0.048957735 0.26035753 -0.2878915 0.49695167 -0.21376492 0.019152947 -0.6288132 0.5226496 -0.1160884 0.34990343 0.31597817 -0.021108728 -0.37722364 0.17943816 0.11293334 -0.09856014 0.16852905 -0.06623461 0.13090277 0.41923708 0.16973844 0.06955217 -0.56955224 -0.4776795 -0.16857034 0.48538432 0.018466117 0.0041728676 0.05970725 0.25531453 0.06201017 -0.13881212 0.17880534 -0.5910977 0.49812505 -0.29321045 -0.095722854 -0.033003397 0.66581273 0.040672466 0.562361 0.038592007 -0.4307278 -0.18849106 -0.18872029 0.13181512 -0.05415176 0.015359007 0.21678215 0.14856154 -0.20856634 -0.2560757 0.058787268 0.043903094 0.10092799 -0.27306762 0.10646772 0.009944859 -0.43670356 -0.28685036 0.16233209 0.27336505 0.56277215 0.2583144 -0.054196995 0.26757002 -0.17348999 0.100225724 0.1345761 -0.15788756 -0.10556575
http://www.w3id.org/sounds/ontology/Speech -0.1141398 -0.07359826 0.021797402 -0.028675955 -0.25377405 0.25486845 0.006905494 0.038463883 -0.016509969 0.10905319 -0.12139662 0.08925579 -0.04934322 0.3099694 -0.08528961 0.0820385 0.31197512 -0.22786741 -0.07854428 -0.03924622 -0.14971003 0.026679749 -0.17507666 0.029664468 0.0006804968 -0.2164847 -0.11668802 0.18090118 0.09747774 0.023145672 0.19685663 -0.111659564 0.19444247 -0.15607674 -0.0052186493 -0.40299672 0.33050957 -0.063444525 0.14498183 0.08956741 0.041497067 -0.036258075 0.27357718 0.12914154 -0.043149173 0.17190792 -0.018854156 0.047559947 0.22080027 -0.06379843 -0.2030187 -0.46303967 -0.40920284 -0.10289927 0.21436417 -0.07805536 -0.11326096 0.09711934 0.21491604 0.10547605 0.05319383 -0.0931452 -0.3694522 0.48051292 -0.05102092 -0.15527298 0.03844707 0.27269417 -0.03500122 0.19584943 -0.046361256 -0.26540828 -0.26580244 -0.113740675 -0.05024077 0.038974103 -0.18440507 0.03750342 0.13307767 -0.12750164 -0.18621187 -0.033924814 -0.011551221 -0.038054418 -0.23956163 0.3231049 0.10470929 -0.216887 -0.17973913 -0.026817458 0.09844254 0.48118904 0.121341795 -0.011847996 0.32805598 -0.11185188 0.12216514 0.044865083 0.105424054 0.09415226
http://www.w3id.org/sounds/ontology/hasBodyPart -0.49150613 0.17637411 -0.0620612 -0.23302627 -0.33475834 0.29738557 -0.038003817 0.029181102 -0.65731627 0.009154131 -0.35729086 0.20833264 0.016737793 0.39099005 0.19029851 0.0058020577 0.36588678 -0.4041608 -0.3322564 0.2650918 -0.49676785 -0.08430086 -0.29175404 0.06749358 0.24739961 -0.26904717 0.14099592 0.178654 -0.16297166 0.0049591786 0.13126364 -0.049930777 -0.33496577 0.20313472 0.039995663 -0.38542077 0.5045854 -0.289112 0.29611683 -0.19989362 0.40877655 0.16448654 0.61577874 -0.07109528 -0.13535072 -0.01240213 -0.11908195 -0.01922134 0.30943435 -0.20885496 -0.24649025 -0.632952 -0.41944766 -0.47623134 0.30961955 -0.10605348 -0.32062858 0.3402272 0.48684487 0.22707713 0.107689664 -0.28417778 -0.122030094 0.55209905 0.3204319 -0.08795073 -0.047810066 0.20835482 0.054110073 0.15280761 -0.29122016 -0.58390373 -0.23496255 -0.09875799 -0.05758806 0.023065537 -0.17960463 0.20898832 0.035705827 -0.032906026 -0.17914875 -0.43715513 -0.0019472269 -0.04812981 -0.18970016 0.7319785 -0.25434244 -0.08601765 -0.031599566 0.21866384 0.09252139 0.3102526 -0.08650278 0.13742489 0.5698415 0.078880034 0.00085341575 0.16644648 0.036680423 0.10786235
mechanism -0.36398584 -0.07946314 0.022807082 0.32660097 -0.061508864 0.2704147 0.22610451 -0.4781737 -0.16678965 0.11420642 -0.1635645 0.20660757 -0.30199698 0.54418194 0.10632271 -0.011037676 0.590094 -0.4206279 -0.12437513 0.48262754 -0.002535996 -0.3588497 -0.28608677 -0.38758248 0.009908355 -0.5776113 -0.14244245 0.1901498 -0.43995413 0.3189666 0.45610687 -0.09325405 0.114852965 -0.2856841 -0.5790339 -0.39319178 0.22367127 -0.33091122 0.013059658 -0.2025523 0.18101712 0.176584 0.5297576 0.19237903 -0.35406962 -0.07516527 -0.38287506 0.13566577 0.21779715 -0.01902016 -0.58845896 -0.73878205 -0.23743662 -0.3189378 0.18908392 -0.18299639 -0.20518124 -0.15841974 0.46229193 -0.1373106 -0.049355604 -0.6786803 -0.11440825 0.5874747 0.5662965 -0.21260238 0.060009453 0.51332206 0.25915852 0.06996245 -0.44498676 -0.012228658 -0.38725668 0.028088013 -0.19929087 0.44657332 -0.5527629 0.020936133 0.32088855 -0.21608578 -0.17147027 0.043199044 0.18538833 -0.16289012 -0.43068922 0.35090783 0.05959628 0.08544652 0.09398219 0.27134913 0.23343569 0.434409 0.31218913 -0.16421826 0.8391702 0.17473248 0.15237385 -0.13038747 0.27279216 0.14369194
http://www.w3id.org/sounds/ontology/FrictionSound -0.16276395 -0.028838886 -0.0056390185 -0.099898264 -0.27566698 0.17717758 -0.00931122 0.053836085 -0.08636261 0.13424796 -0.15135449 0.15028216 -0.027368024 0.33721069 -0.036467854 0.100923285 0.29883927 -0.28215107 -0.11153474 -0.054068245 -0.23130299 0.030123997 -0.15525001 0.07127535 0.04473225 -0.20773272 -0.0788784 0.1862601 0.15815651 0.043571 0.1417048 -0.1475217 0.17946309 -0.10945552 0.029557617 -0.4389329 0.36517504 -0.12034322 0.17671497 0.0884408 0.08283707 -0.03874035 0.29441798 0.096237145 -0.028019091 0.17573738 -0.045289148 0.060788162 0.28373945 -0.09065861 -0.12781988 -0.45991823 -0.44787258 -0.12786974 0.2516444 -0.073946126 -0.13366191 0.17209645 0.22642857 0.1349496 0.07139157 -0.056993403 -0.40259653 0.47157174 -0.071571335 -0.089280754 0.013571087 0.27650684 -0.03188541 0.20469289 -0.036176067 -0.32061458 -0.274854 -0.1469183 0.00843112 0.014559614 -0.13779603 0.03446258 0.10837885 -0.15167978 -0.1968763 -0.06009093 -0.034215584 -0.028750528 -0.2110283 0.41211954 0.047753442 -0.20358635 -0.2261227 -0.03300191 0.07374559 0.4691227 0.10277764 -0.029464973 0.35661238 -0.15286013 0.09570824 0.11736477 0.07344982 0.08288724
speech 0.103054605 0.022106137 0.04510392 0.022499664 -0.19372045 0.43759206 0.289361 0.06885926 0.20691334 -0.06284572 0.08958312 -0.11945851 -0.21428017 0.37743384 -0.2514352 0.041732308 0.2005856 -0.20720632 0.11465094 -0.03717089 0.15576625 -0.1733963 -0.04766537 -0.24226442 -0.064752646 -0.36384937 -0.12874699 0.1199911 -0.10198073 0.3375676 0.34143505 -0.15988034 0.35642567 -0.6771453 -0.11182098 -0.47192115 0.15911794 0.22909904 0.18882185 -0.1590083 -0.10984579 -0.17493446 0.32468814 0.21241027 0.046862256 0.286129 0.023004673 -0.038304705 0.07847368 -0.08940961 -0.49291003 -0.38651615 -0.4926963 -0.023846582 -0.019437844 -0.11347339 -0.19640176 -0.20966466 0.28172225 -0.031142037 0.0058092866 -0.36516327 -0.23469663 0.6981691 -0.037478097 -0.17468852 0.098924406 0.36746323 -0.15963793 0.356572 -0.14969423 -0.11444097 -0.26846868 -0.08951888 -0.32244882 0.26054507 -0.54653186 -0.23906027 0.3069923 -0.18020509 -0.27610305 0.29000387 0.19542278 -0.12999876 -0.36535537 0.22863936 0.13009553 -0.24895792 -0.20457144 -0.07750794 0.28139836 0.6378075 0.17830281 -0.11844765 0.2514104 -0.03696455 0.051272344 -0.01823098 0.37179744 0.26794326
http://www.w3id.org/sounds/ontology/hasContext -0.20547384 -0.0034614585 0.067140415 -0.20399223 -0.36624944 0.1433408 -0.09726428 0.14095548 -0.17185752 0.1811694 -0.15447648 0.171297 0.09380094 0.33908808 -0.016030997 0.12862092 0.2616635 -0.36809522 -0.112666875 -0.13748974 -0.33213902 0.025955705 -0.13569565 0.13603437 0.0686085 -0.20962931 -0.06563833 0.22405033 0.24190766 0.02988857 0.12362385 -0.11131984 0.086306304 -0.034674995 0.07664321 -0.4960134 0.4433573 -0.124761455 0.19509836 0.10704232 0.095625155 -0.09207768 0.2746218 0.10548794 -0.008853567 0.26440427 -0.028713379 0.016377201 0.25635955 -0.1336475 -0.103918076 -0.4495817 -0.5010287 -0.15649122 0.34509543 -0.09949655 -0.20721826 0.26307017 0.17424881 0.16916299 0.18998069 -0.04126902 -0.46253067 0.51641226 -0.1509083 -0.060463116 -0.033642672 0.25513175 -0.10684123 0.20126013 0.02361154 -0.4553307 -0.30079964 -0.17914681 -0.0024046472 -0.0357626 -0.11855679 0.049609635 0.1254515 -0.19844694 -0.19489686 -0.055164892 -0.061773334 0.024691334 -0.19811784 0.46692044 -0.0093346685 -0.24053827 -0.29222837 -0.110668115 0.078251824 0.4759459 0.088035464 0.025555369 0.34100816 -0.15292975 0.11289264 0.19279256 0.028145691 0.12821595
http://www.w3id.org/sounds/ontology/Liquid -0.0033715765 -0.04413329 -0.039444756 0.009139224 -0.3491553 0.22640763 -0.064390525 0.05913799 -0.08710657 0.3938254 -0.1598751 0.13714236 -0.09166093 0.4021432 -0.01816633 0.111502714 0.48263267 -0.29806444 -0.08221438 -0.21612851 -0.26474473 0.12525462 -0.22957395 0.18668297 0.25281227 -0.08012726 -0.23143491 0.04609444 0.36188766 0.02900286 0.193332 -0.21065374 0.33138153 -0.16977827 -0.032479677 -0.5194067 0.45077598 -0.099407785 0.35113183 0.23453997 0.08157397 -0.27150166 0.23946482 0.056512885 -0.08125198 0.16455112 -0.09439314 0.115855075 0.39741424 0.08618484 -0.023364266 -0.57419676 -0.45198855 -0.20268425 0.40260443 -0.008956858 -0.044707928 0.017855788 0.30393007 0.057790197 -0.10194969 0.08150182 -0.4627091 0.4547321 -0.14684515 -0.07310254 -0.027760625 0.50751984 0.032746285 0.43736205 -0.037652317 -0.34878948 -0.1633861 -0.15144171 0.050438818 -0.015473804 -0.032649674 0.15377548 0.1500704 -0.1329273 -0.19450168 -0.019331476 0.028008502 0.023073584 -0.28353336 0.18293726 0.045611944 -0.29777268 -0.19974346 0.13765463 0.15795058 0.5421559 0.2199459 -0.02286675 0.35442135 -0.16249634 0.07170626 0.12889716 -0.12376016 -0.030152353
part -0.7240465 -0.07040858 -0.090513505 0.25483596 -0.25150436 0.455217 0.24445577 -0.42040578 -0.45649713 0.017213691 -0.04625642 0.1676655 -0.34923428 0.4345373 -0.009197505 0.14228229 0.46524075 -0.3200352 -0.10222301 0.5522481 0.052310724 -0.36020625 -0.32617298 -0.3882988 0.03214625 -0.6663664 -0.30074725 0.082904 -0.5380856 0.19865486 0.37076783 -0.034734707 -0.13471496 -0.07953367 -0.5320439 -0.7893217 0.22072522 -0.30368677 -0.048027474 -0.16426115 0.37234208 0.17030238 0.52681935 0.34964165 -0.49982843 5.6088757e-05 -0.3609997 0.2662464 0.20617485 0.03713902 -0.7139161 -0.7586552 -0.27156922 -0.428006 0.21920043 -0.17968151 -0.33377686 -0.09899866 0.44180045 -0.017523833 -0.09537061 -0.8161983 -0.16624224 0.72271633 0.62742627 -0.4117128 -0.040958505 0.39464942 0.2754263 -0.07546542 -0.47020167 -0.05007235 -0.35682625 0.034157846 -0.081862085 0.4044263 -0.5179316 0.048903935 0.50549436 -0.34009564 -0.16349435 0.07163859 0.17219996 -0.10094716 -0.38152406 0.38619778 0.16183884 0.092316985 0.24191348 0.48920408 0.19130705 0.39470062 0.40572962 -0.12670134 0.72839 -0.017794533 0.33868307 -0.09612395 0.32373503 0.33964798
http://www.w3id.org/sounds/ontology/AirInTube -0.44408068 0.11416814 -0.018426657 -0.1713032 -0.2743575 0.08936876 -0.075176135 -0.046185076 -0.48969564 0.10809732 -0.23014538 0.2624636 0.015239932 0.42870867 0.19387884 0.0057765576 0.27474585 -0.41186446 -0.22553146 0.09061281 -0.32395852 -0.11562832 -0.20883311 0.085616715 0.22647542 -0.2599113 0.02635893 0.12056062 0.08054958 0.09661118 0.12218385 -0.1402737 -0.1362036 0.14903897 -0.04765992 -0.45956662 0.42953447 -0.3266463 0.15427636 -0.014458619 0.35257292 0.12798527 0.5498386 0.038407404 -0.11829005 0.005377695 -0.13837563 0.059158646 0.3701652 -0.10626776 -0.26854464 -0.5882585 -0.42516136 -0.41156515 0.39221936 -0.1880412 -0.23622775 0.29152483 0.4246262 0.071817644 0.13327399 -0.21909086 -0.16843033 0.49731296 0.23130386 -0.052486386 -0.07610771 0.25760227 0.055721484 0.08343229 -0.30490598 -0.47845966 -0.22403196 -0.19513607 -0.0019022634 0.033205006 -0.13982838 0.1999711 0.12736395 -0.032103665 -0.16543952 -0.2633451 -0.07067414 -0.036829527 -0.1433328 0.523656 -0.1954038 -0.052601855 -0.08834459 0.09210227 0.12053946 0.31444547 -0.059179597 -0.0039547356 0.46226344 0.0147149805 0.07799451 0.15490231 -0.013876811 0.07765745
http://www.w3id.org/sounds/ontology/VehicleMovementSound -0.15410703 -0.062364366 -0.0036277112 -0.027545977 -0.24258937 0.22171633 -0.01685658 0.06930695 -0.055203106 0.15497045 -0.13729033 0.1286692 -0.0037111086 0.29349235 -0.05044926 0.09446706 0.29128432 -0.27609953 -0.057690505 -0.06400695 -0.17771871 0.018814608 -0.14799592 0.041163485 -0.0018468243 -0.22086222 -0.11936801 0.17703442 0.10963057 0.040669687 0.17425968 -0.10095574 0.17167176 -0.12940176 0.0039139343 -0.435605 0.33601907 -0.07498057 0.16514057 0.083759844 0.04048044 -0.062375028 0.28412798 0.12187306 -0.057746805 0.20569515 -0.04459364 0.062986694 0.24946563 -0.05177467 -0.17578782 -0.44771433 -0.3893942 -0.117411785 0.21433477 -0.06948965 -0.1337641 0.10732918 0.18637447 0.12412903 0.0681992 -0.10617101 -0.39210233 0.4916408 -0.056436192 -0.123943195 0.03366958 0.2926784 -0.044738185 0.20477526 -0.03239197 -0.32127112 -0.28039917 -0.12491798 -0.04441904 0.01739392 -0.18088086 0.04131158 0.1380088 -0.16526225 -0.19928077 -0.03530205 -0.037276905 -0.00417528 -0.21059614 0.36623153 0.065167725 -0.2241439 -0.1705549 -0.033545215 0.09678835 0.46289685 0.11546959 -0.010883979 0.36667117 -0.13921541 0.12882453 0.04627476 0.077430375 0.0948414
http://www.w3id.org/sounds/ontology/ComplexAction -0.122133 -0.039975982 0.032491706 -0.10011927 -0.294168 0.22404745 -0.031802423 0.064812556 -0.06382475 0.14849155 -0.15206541 0.11729964 0.0052150367 0.30337277 -0.048306942 0.08258925 0.29047287 -0.2611163 -0.072217636 -0.059741642 -0.23520036 -0.0011045629 -0.14786074 0.03620171 0.026221836 -0.20449524 -0.10314201 0.18845405 0.14792982 0.00723811 0.16745456 -0.13909428 0.18245189 -0.12419887 0.013033137 -0.41585347 0.34882197 -0.0827241 0.19143283 0.09509409 0.07555472 -0.052710507 0.2770135 0.10794466 -0.014877497 0.19482839 -0.028891562 0.027820606 0.25960097 -0.08667914 -0.13843927 -0.46761248 -0.4482086 -0.12285848 0.25339365 -0.061924532 -0.14993653 0.10845648 0.1981048 0.12566 0.08345194 -0.07439688 -0.42290407 0.48930725 -0.061485272 -0.09467374 0.023829795 0.29605797 -0.086931996 0.21766071 -0.0319111 -0.36047468 -0.27198747 -0.13000982 -0.025925376 0.028403586 -0.15379757 0.023150798 0.09105541 -0.18170826 -0.17202045 -0.05822711 -0.031410463 -0.016732227 -0.24095535 0.38043946 0.043224677 -0.22783625 -0.22907637 -0.023777096 0.10590386 0.50245076 0.10837519 -0.0243284 0.35341507 -0.121480025 0.11914657 0.058268074 0.0641387 0.12173528
http://www.w3id.org/sounds/ontology/Step -0.2644448 0.089264825 -0.0039467397 -0.23796882 -0.31117052 0.15994063 -0.05550715 0.13441187 -0.31902477 0.14019099 -0.24129745 0.19424424 0.04497828 0.3658233 0.08887183 0.06889901 0.2527718 -0.34033838 -0.19711615 -0.021853527 -0.37107772 0.015930975 -0.14403577 0.11282845 0.17563777 -0.23243262 -0.0133224465 0.17233483 0.1515147 -0.011068915 0.08879702 -0.13842146 0.0075754533 0.049339358 0.057978466 -0.43613997 0.44667917 -0.19941254 0.25688067 0.023217246 0.2010618 0.01778686 0.4034553 0.05365456 -0.06717249 0.17027582 -0.10262826 0.0062159896 0.3354785 -0.13093022 -0.13074519 -0.49402902 -0.45895478 -0.2817934 0.3765573 -0.10100624 -0.20027213 0.27529016 0.27961868 0.14444384 0.13360037 -0.08409795 -0.32194015 0.49777684 -0.008593548 -0.022110594 -0.0422573 0.23212282 -0.048803914 0.16543074 -0.09095537 -0.4431976 -0.2701527 -0.19130236 -0.02040876 -0.0037274582 -0.11665572 0.12659301 0.060826495 -0.13369094 -0.18099508 -0.19439556 -0.0711712 -0.006370175 -0.16342883 0.54689986 -0.1078974 -0.20504613 -0.23328799 -0.028827526 0.091386825 0.44976664 0.0037063595 0.026870131 0.4134225 -0.13771261 0.07580046 0.18008749 0.022285596 0.09717182
body -0.64943534 -0.0042111 -0.14702566 0.30221787 -0.06923019 0.4537188 0.11525771 -0.4098392 -0.4168477 -0.035945 -0.1533299 0.22696365 -0.14862247 0.49674532 0.0036052172 -0.0024034565 0.45953098 -0.43154624 -0.22986837 0.53857887 -0.09180195 -0.37963235 -0.34730235 -0.41257265 0.042728942 -0.6468692 -0.2894292 0.18801194 -0.38879794 0.25052023 0.43399084 0.04784834 -0.08386178 -0.23593359 -0.49743167 -0.713491 0.29696226 -0.21657385 -0.09315365 -0.20632914 0.2452179 0.19737718 0.6623302 0.18001202 -0.4544763 -0.16247526 -0.30457786 0.11359381 0.19209875 -0.006665401 -0.70122707 -0.78541195 -0.2848176 -0.34193933 0.054080296 -0.21821854 -0.2916399 -0.10808342 0.37052244 0.0018887941 -0.12646878 -0.8468958 -0.15137197 0.67175657 0.5973962 -0.43003756 0.13186862 0.43978417 0.31545982 -0.09991363 -0.61193204 -0.03693411 -0.30335802 0.16115552 -0.20949447 0.1983455 -0.45564282 0.032294884 0.3175326 -0.1495622 -0.12131447 -0.009936251 0.26972118 -0.026158465 -0.4225419 0.51584375 0.08397379 0.13425562 0.26843306 0.43427837 0.30452764 0.32524586 0.32107 -0.15295243 0.92057014 0.07302203 0.3715902 -0.17059639 0.46017575 0.24660063
non -0.1728026 0.047615923 -0.12401125 0.06177432 -0.24324077 0.36032903 0.025876671 0.07082644 0.3346633 -0.0649645 -0.24007383 -0.08037072 -0.29280344 0.38273928 -0.34644297 0.088347904 0.2976122 -0.33175668 -0.10995831 -0.18769671 0.19458245 0.03883904 0.06906051 -0.35995328 -0.098061204 -0.49548158 -0.31285107 0.017506564 -0.1742712 0.26846084 0.06904773 0.053814445 0.3960489 -0.54211867 0.025671009 -0.35966867 0.35714877 0.0040068994 0.23921447 -0.0684848 0.061689842 0.042172126 0.04186188 0.22125162 -0.17748502 0.07793744 -0.09304689 0.17846534 0.30416894 -0.124162026 -0.5214843 -0.43322888 -0.17969313 0.18014424 -0.061893564 -0.09676174 -0.0181328 -0.19021901 0.19440879 -0.19036922 -0.022797922 -0.4445316 -0.3270099 0.49322113 0.017805418 -0.2285545 0.005683924 0.19800729 -0.034189284 0.24373902 -0.041581176 -0.14130877 -0.36550668 -0.038262237 -0.3504495 0.118657686 -0.49357143 -0.104152136 0.13244681 -0.27610353 -0.11800047 0.17741784 -0.16456059 0.13050391 -0.493775 0.27702203 0.19925177 -0.3198371 -0.23976414 0.17837809 0.29958192 0.631945 0.3525844 -0.22275747 0.38170516 -0.13446808 0.14246534 -0.28868786 0.5413448 0.097773165
http://www.w3id.org/sounds/ontology/FluidDynamicMechanism -0.12743402 0.010286329 0.0002842819 -0.1430508 -0.3512469 0.16469026 -0.06345883 0.111278005 -0.19728197 0.26702327 -0.18263936 0.15783748 -0.0013050444 0.40174702 0.058173962 0.11833931 0.3524968 -0.34296367 -0.09378124 -0.1816491 -0.3407938 0.0740629 -0.17464703 0.18456286 0.20749949 -0.17125355 -0.14001773 0.109555416 0.3054887 -0.0018929032 0.10937566 -0.17522526 0.21320465 -0.07308272 0.024606643 -0.5321989 0.4769573 -0.18386999 0.28455576 0.14448497 0.092918366 -0.1419229 0.31610712 0.038064305 -0.05130553 0.15184964 -0.08901124 0.04648029 0.3919364 -0.023549955 -0.04787774 -0.4866763 -0.44552338 -0.22793037 0.39486915 -0.10116193 -0.1188794 0.15030488 0.27684218 0.055109344 0.012810667 -0.019209156 -0.42578277 0.49653003 -0.107333645 -0.019042784 -0.065270424 0.42168123 -0.03974817 0.27500057 -0.04319227 -0.4070882 -0.18847734 -0.21232875 0.005854092 -0.01593307 -0.09695595 0.14990428 0.10885368 -0.122289024 -0.18551931 -0.047144216 -0.059167158 0.026327066 -0.23863715 0.374803 -0.0061949436 -0.26377523 -0.23542163 -0.005160718 0.105681255 0.51654017 0.08920969 -0.018501295 0.36486706 -0.13837887 0.08504404 0.16761608 -0.08501575 0.008726582
movement -0.0953234 -0.15998691 -0.009194616 0.23469791 0.022782471 0.3099494 0.29979205 -0.29634157 0.17781058 0.048063196 -0.0917503 0.101509236 -0.3017617 0.27610508 -0.05164594 0.0099721635 0.60064316 -0.25712526 -0.017785568 0.11768323 0.13921417 -0.25376064 -0.15540685 -0.4669132 -0.12486114 -0.60995656 -0.11407015 0.06695263 -0.3865867 0.29012498 0.335875 -0.17024192 0.2932318 -0.4951516 -0.34527653 -0.41598043 0.059653472 -0.14412992 0.07179216 -0.03846598 -0.060624223 0.02958161 0.305601 0.22719276 -0.096796624 -0.033605542 -0.2871163 0.026799157 0.23475607 -0.09264375 -0.5165097 -0.49312505 -0.22760712 0.023801478 0.012926112 -0.099946335 -0.037439108 -0.16877736 0.39435253 -0.027043467 -0.053034253 -0.5127829 -0.20095904 0.70566493 0.22999668 -0.24907036 0.03894999 0.37978765 0.17520517 0.18379134 -0.12646805 0.06524574 -0.44317156 -0.013444913 -0.3253469 0.40457165 -0.5743925 -0.16113648 0.22434828 -0.21842754 -0.13993815 0.100668676 0.12645781 -0.07521353 -0.36673588 0.28358042 0.24683438 0.017631833 0.035653427 0.09253003 0.23807678 0.62325567 0.26983017 -0.1121774 0.56032807 -0.051564895 0.15437835 -0.22893281 0.3126889 0.08751793
http://www.w3id.org/sounds/ontology/LiquidSolid -0.044797152 -0.08311077 -0.025142254 0.00975106 -0.34446424 0.24080788 -0.05434354 0.040755197 -0.0941583 0.32617557 -0.1629787 0.107766055 -0.060895227 0.38316977 -0.03634416 0.111780606 0.42102516 -0.31027967 -0.039599277 -0.19703361 -0.22923504 0.11961397 -0.20030515 0.15274695 0.16296561 -0.10926746 -0.21518111 0.066597976 0.3129806 0.054939445 0.20643744 -0.22046122 0.34361207 -0.18159984 0.0075273365 -0.48935035 0.42844307 -0.07906319 0.27138257 0.17959611 0.01907609 -0.22897056 0.25297722 0.07673775 -0.06566135 0.15394616 -0.08283164 0.07001701 0.3423234 0.07867401 -0.024953747 -0.51780397 -0.44193742 -0.15533504 0.3578628 -0.06263964 -0.04731171 0.051800504 0.21925277 0.07972254 -0.07946341 0.01567412 -0.45305282 0.4982145 -0.13346128 -0.11617947 -0.0025571005 0.5048321 0.04180549 0.37631777 -0.02074172 -0.32797924 -0.21269757 -0.17545827 0.052201044 -0.006785412 -0.054550514 0.1167288 0.1444759 -0.15674323 -0.21481435 -0.0050717443 0.027163962 0.0038257393 -0.2721783 0.22907405 0.0726732 -0.32895926 -0.2063334 0.07522235 0.14630537 0.49294204 0.20074634 -0.053501822 0.31848252 -0.16891891 0.09869631 0.10956302 -0.07079826 -0.00724643
http://www.w3id.org/sounds/ontology/LiquidSound -0.16828148 0.010294375 0.069533326 -0.13286492 -0.35445365 0.1590061 -0.07305981 0.104587905 -0.18529692 0.1961434 -0.16887882 0.18017453 0.006190296 0.3902837 0.04228923 0.11108386 0.2987526 -0.3556572 -0.09346741 -0.104184374 -0.27568308 0.047613833 -0.1431975 0.13411829 0.12321611 -0.20581658 -0.10752223 0.12820578 0.23153923 0.01836752 0.099439144 -0.17755911 0.16332251 -0.0290936 0.010982615 -0.4699122 0.40895036 -0.14395049 0.22918712 0.1330922 0.1223711 -0.036899555 0.32584417 0.092932455 -0.042287327 0.18262444 -0.07734709 0.078559935 0.28169814 -0.068673365 -0.12699464 -0.4934596 -0.46847427 -0.17202348 0.3658661 -0.099136785 -0.17015107 0.200937 0.25125247 0.12548088 0.10876773 -0.05090571 -0.43152988 0.46913603 -0.050330516 -0.05598451 -0.02895879 0.29681644 -0.07848146 0.20616747 -0.035511985 -0.40073317 -0.25059062 -0.14698164 0.03112958 -0.02084918 -0.14788865 0.05648987 0.11069664 -0.14436792 -0.19777569 -0.041605264 -0.090679795 0.011089901 -0.17908305 0.4346254 -0.034797773 -0.2207575 -0.22838116 -0.06724357 0.10874913 0.46168572 0.04529388 0.036509417 0.35468698 -0.16676587 0.13100043 0.12067626 0.038808495 0.08324905
http://www.w3id.org/sounds/ontology/WindSound -0.15478057 0.0024211484 1.5594367e-05 -0.07302301 -0.28239334 0.18592595 -0.019083561 0.034978714 -0.10431501 0.13316764 -0.16724984 0.12495862 0.0065618996 0.3343807 -0.0133349495 0.076544024 0.29068288 -0.29216447 -0.09028643 -0.02435929 -0.20785466 0.019909414 -0.13930191 0.0076909214 0.042091314 -0.26160708 -0.11477422 0.15155664 0.13316736 0.040738147 0.13415487 -0.1373218 0.13313392 -0.11484794 -0.028815039 -0.42486545 0.36829233 -0.12967709 0.17766127 0.08161719 0.11361533 -0.041742716 0.32759196 0.07973556 -0.07267977 0.15419397 -0.065110765 0.028801009 0.24429362 -0.08596071 -0.19053897 -0.44679403 -0.41517654 -0.1659876 0.25562748 -0.107063286 -0.1639762 0.14698699 0.23018378 0.098235495 0.095218375 -0.12290143 -0.37019253 0.48270154 -0.020078465 -0.0787955 -0.005087659 0.26468024 -0.02335881 0.18467413 -0.08765048 -0.31868395 -0.28722405 -0.113922134 -0.02807637 0.02521848 -0.17699598 0.05642741 0.12969074 -0.16139111 -0.18550093 -0.06691261 -0.021511039 -0.039042503 -0.21497169 0.41252425 0.05748523 -0.1892061 -0.21043025 -0.014939845 0.0794884 0.4369454 0.11442827 -0.0033247797 0.38064495 -0.098469935 0.094309874 0.06814705 0.06928708 0.09043246
with 0.024962256 -0.5277131 -0.08020859 0.3948706 -0.18025514 0.37228325 0.13235351 0.31059682 0.29853478 -0.11467652 -0.14671835 0.044508755 0.28673902 0.27224484 -0.47847006 0.2251099 0.5578744 0.0003096978 0.11496066 -0.36333677 0.14783995 0.1473632 0.096899465 -0.4389111 -0.34568715 -0.53578085 -0.4353184 0.30583972 -0.08809777 0.17954496 0.4558321 0.047431365 0.37243468 -0.6957612 0.15009691 -0.9895417 0.2507004 0.08398149 0.152138 0.10986445 -0.04727811 -0.23159693 0.25012094 0.27939454 0.07355766 0.25767693 0.057139013 0.03720181 0.44677478 -0.05523066 -0.7695738 -0.86699915 -0.4314195 0.30321568 0.121316805 0.23557802 0.176781 -0.250022 0.2152356 0.27285996 0.3911653 -0.25186315 -0.66534936 0.7360397 -0.13164866 -0.5645457 0.13264443 0.06020281 -0.44515383 0.054584872 0.008868697 -0.18724313 -0.5464263 0.15499529 -0.4951262 -0.23597768 -0.7509483 -0.07136705 -0.04493994 -0.51259744 -0.031487662 0.21232593 -0.17901018 0.14576915 0.008091613 0.37936822 0.5189388 -0.5758557 -0.08235125 -0.10352355 0.32112157 1.162743 0.4137415 -0.123777986 0.4862929 -0.539084 0.4066303 -0.23277035 0.43185413 0.42919436
http://www.w3id.org/sounds/ontology/Material 0.0007089784 -0.07014182 -0.023120511 -0.01046613 -0.34981892 0.26192942 -0.051669907 0.0887215 -0.06602676 0.40660432 -0.15693621 0.09567438 -0.043288555 0.39178595 -0.02981214 0.12210983 0.46181598 -0.32346827 -0.04076129 -0.1915545 -0.26224506 0.13332392 -0.21467888 0.22362241 0.20393814 -0.10815322 -0.21973109 0.05893876 0.37622333 0.010639703 0.1957952 -0.230204 0.35302392 -0.18530814 0.033838395 -0.523382 0.44713897 -0.10321893 0.30963647 0.23335835 0.008899671 -0.2677884 0.19544604 0.07369623 -0.07002155 0.20014769 -0.0382708 0.059206977 0.35879505 0.09245857 0.016520094 -0.5060923 -0.47923008 -0.17856301 0.35214123 -0.016892511 -0.041111197 0.062583536 0.21590292 0.08691495 -0.10259017 0.08604776 -0.4945665 0.51291406 -0.16362298 -0.09087709 -0.010907692 0.52602535 0.030721528 0.42429286 0.00848857 -0.3759015 -0.23792872 -0.17161639 0.06325374 0.01001375 -0.048993047 0.13922325 0.13448116 -0.1545502 -0.23340859 0.020133773 0.02189619 0.02947418 -0.29956782 0.21150325 0.06761155 -0.35387602 -0.24802332 0.10276096 0.18850398 0.5510144 0.2009573 -0.06233201 0.31297818 -0.18851125 0.11841187 0.13291283 -0.073457874 -0.021509403
http://www.w3id.org/sounds/ontology/Vehicle -0.3013397 0.02976501 0.09255855 -0.17262444 -0.38571775 0.21146375 -0.21752574 0.11904938 -0.101767026 0.34365317 -0.044208203 0.24107747 -0.09982985 0.37670937 -0.007821232 0.0026568526 0.13514131 -0.40147722 -0.081904694 -0.11754282 -0.21149836 0.061919667 -0.10360124 0.12975405 -0.08253305 -0.2891315 -0.109962605 0.28271088 0.16711459 0.025566708 -0.009695538 -0.08086308 0.246824 -0.095492564 0.0591301 -0.49873483 0.5221136 -0.00447797 -0.016692556 0.12920019 0.15909 -0.12690938 0.43436125 0.30218112 -0.17286019 0.29612678 -0.0031989876 0.011863281 0.12710139 -0.13065471 -0.16936435 -0.5525903 -0.4133754 -0.24159941 0.13450396 -0.1295718 -0.36176676 0.1757328 0.27057618 0.19947277 0.1561347 -0.1373821 -0.48753864 0.4427317 -0.13310145 -0.13708822 -0.047731712 0.29576048 -0.09127751 0.3909026 -0.050122194 -0.5371788 -0.21257706 -0.039666347 0.100891665 0.07417685 -0.09039584 0.027211485 0.31621718 -0.15850736 -0.21494064 -0.023817442 -0.1348781 0.009093023 -0.22533354 0.36375764 0.1318502 -0.0786101 -0.2125233 -0.0039294786 0.2411861 0.40280902 0.12896168 0.027826076 0.35378528 -0.146232 0.1660628 0.14278714 0.07368371 0.14379102
object -0.10893982 -0.48895425 -0.0756165 0.38139346 -0.19405492 0.5216434 0.1543018 0.3908125 0.3031038 -0.1738722 -0.0329057 -0.10298138 0.24677426 0.32030612 -0.36923918 0.29643628 0.37791836 -0.088205345 0.22054707 -0.31713447 0.250709 0.08283964 0.021657439 -0.3525349 -0.24698034 -0.6090964 -0.44228807 0.12623642 0.02660702 0.1235234 0.3070539 0.08406337 0.3225752 -0.78137505 -0.014674386 -1.0450745 0.44151524 0.102351025 0.28630123 0.0952591 -0.051221594 -0.35629508 0.24880058 0.33253935 0.15619022 0.28975323 0.065603115 0.1481831 0.32363096 0.08079771 -0.756479 -0.84060186 -0.407863 0.31329298 0.10632757 0.32852873 0.27890244 -0.13078953 0.13575342 0.27175567 0.25386965 -0.33645535 -0.57863444 0.86216754 -0.13048667 -0.4491523 0.13582121 0.052902117 -0.48147187 0.20897345 0.1344993 -0.18051602 -0.55591804 0.081646524 -0.5760543 -0.18883112 -0.812672 -0.27382815 0.0828421 -0.4216677 -0.105826184 0.252474 -0.25758162 0.10896013 -0.048542343 0.36275023 0.58964497 -0.5545904 -0.11135313 -0.13755435 0.4961339 1.0567545 0.2509978 0.0031146733 0.49014375 -0.51430255 0.45862177 -0.16551858 0.54264253 0.4265671
interaction -0.08328249 -0.3836281 -0.12569867 0.33088034 -0.27630097 0.4772959 0.2051836 0.38053936 0.22989073 -0.15714943 -0.054135475 -0.0029290265 0.28245845 0.17756262 -0.41420156 0.17222637 0.39247495 -0.11387799 0.22243056 -0.3825598 0.22476089 0.07978176 0.02403628 -0.3283094 -0.34039086 -0.49747297 -0.41614074 0.16965826 0.0016478187 0.1662846 0.2891367 0.007492974 0.31007966 -0.7597684 0.07366735 -0.9716399 0.35060346 0.085099004 0.14162225 0.18391797 -0.037202395 -0.35446057 0.2794216 0.2935452 0.11688783 0.30544743 0.009378748 0.14114797 0.30725262 0.012112332 -0.7656206 -0.73408216 -0.47844487 0.2728369 0.1951203 0.2838833 0.26048705 -0.24051656 0.09406064 0.27257884 0.22575256 -0.408674 -0.5737403 0.83681977 -0.09067541 -0.50284284 0.1598128 0.05352476 -0.38314375 0.062985465 0.0755939 -0.18577054 -0.40403914 0.0295536 -0.5263602 -0.20519914 -0.790649 -0.17087303 -0.02748235 -0.38276684 0.008821323 0.26128468 -0.1266389 0.16456792 -0.018153926 0.3940005 0.56912106 -0.5214877 -0.0035602467 -0.14515077 0.43202665 1.0525026 0.27346802 -0.13621803 0.43721458 -0.46251342 0.48060924 -0.09587119 0.46024048 0.4643774
http://www.w3id.org/sounds/ontology/Wash -0.21195933 0.047957163 0.07906806 -0.22633824 -0.36982226 0.11657588 -0.09094069 0.15485556 -0.21160373 0.17144495 -0.20320633 0.1800679 0.058955807 0.38581216 0.07787885 0.100985125 0.28064966 -0.35249472 -0.13502663 -0.15596078 -0.37364396 0.06857069 -0.11835301 0.17993835 0.14959311 -0.21989907 -0.090967864 0.18400477 0.28022867 -0.0064188447 0.054401975 -0.17776532 0.12528507 -0.016397282 0.07159486 -0.49419835 0.47156432 -0.16501662 0.2639154 0.15596539 0.13536213 -0.03154669 0.36175898 0.09286411 -0.017767977 0.17512408 -0.05689921 0.06654776 0.3429995 -0.09341198 -0.08544344 -0.46821442 -0.4899759 -0.19265781 0.3891316 -0.12810847 -0.20071803 0.24885336 0.25643313 0.11734647 0.18008302 -0.039842103 -0.42659187 0.49322385 -0.099072866 0.0034816926 -0.056055784 0.28958106 -0.0892156 0.19391102 -0.037571877 -0.46258292 -0.27277184 -0.20255381 0.03197398 -0.0752568 -0.114197634 0.11022052 0.08587501 -0.14273882 -0.17247316 -0.06659517 -0.1056577 0.02843171 -0.14441006 0.4946382 -0.084533535 -0.2166543 -0.2923492 -0.1190654 0.11010893 0.4976643 0.0073062694 0.058014356 0.370189 -0.15981232 0.084798336 0.18189844 -0.03992899 0.08653342
http://www.w3id.org/sounds/ontology/Trot -0.2284317 0.047417905 -0.09172948 -0.26893464 -0.35559002 0.26086175 -0.055367477 0.25168929 -0.32879356 0.1030622 -0.29009336 0.15585117 0.08520466 0.33792824 0.057269905 0.14165717 0.2506532 -0.37860745 -0.20703647 0.035627544 -0.44662836 0.097611286 -0.14443614 0.13164139 0.21129659 -0.2183344 0.07771292 0.250136 0.0066284756 -0.14647141 0.10423835 -0.0192864 -0.10758376 0.049053855 0.15212438 -0.41901895 0.47843513 -0.13375464 0.32064238 -0.040805936 0.12406972 0.010309707 0.36590225 0.026943015 -0.05678429 0.2527801 -0.04641989 -0.04011164 0.29337054 -0.19148442 -0.09198378 -0.49788457 -0.5453104 -0.26628894 0.37407196 -0.044615414 -0.22401139 0.31175438 0.24378708 0.3000164 0.06786812 -0.07948371 -0.39043975 0.5617733 -0.027209098 -0.061068643 -0.01289152 0.20628624 -0.1253898 0.14485699 0.00655633 -0.5119916 -0.2886794 -0.2046507 0.021318734 0.0003507022 -0.14092751 0.065420814 -0.05327707 -0.17566335 -0.22038808 -0.25847587 -0.056532532 -0.0063294596 -0.24828713 0.6884477 -0.12507057 -0.25304615 -0.2962783 0.032324582 0.024775766 0.46905646 0.05208908 0.10009729 0.45645732 -0.2142335 0.10198698 0.18907331 0.11497007 0.1391988
impact -0.23374084 -0.14180906 -0.019913865 0.25613612 -0.06068873 0.27874178 0.21398665 -0.29210794 -0.03450767 0.034617994 -0.14398752 0.11692917 -0.22629943 0.38026318 -0.016467687 -0.007814453 0.48649234 -0.29832917 -0.06027521 0.26229748 0.06838055 -0.24889849 -0.19707382 -0.38152498 -0.068106875 -0.5397165 -0.1441395 0.08735106 -0.3656708 0.24651189 0.34954777 -0.08943573 0.15121287 -0.35146105 -0.37674704 -0.4127277 0.12968045 -0.19027118 0.04041251 -0.087177955 0.06317195 0.07356792 0.41631803 0.20615305 -0.19077294 -0.06610079 -0.2728532 0.072230235 0.20981243 -0.068677045 -0.5594987 -0.5710785 -0.22001678 -0.1158366 0.0679519 -0.118836634 -0.13170424 -0.14803247 0.37559325 -0.023594735 -0.011912989 -0.550229 -0.13440141 0.58742654 0.340481 -0.25698382 0.042494692 0.36039397 0.16110668 0.089489534 -0.26222438 0.021189459 -0.35715386 -0.0052295625 -0.26268238 0.33150476 -0.51065564 -0.06893779 0.25296894 -0.20910104 -0.1406927 0.06352708 0.14053844 -0.07452136 -0.3338222 0.29614416 0.18883792 0.04440954 0.10104847 0.16890621 0.22370313 0.49544218 0.25912505 -0.12778483 0.6320738 0.008643009 0.20141867 -0.1595762 0.32769185 0.14902224
http://www.w3.org/1999/02/22-rdf-syntax-ns#type 0.18924662 -0.33207077 -0.2347932 -0.06096427 -0.49655327 0.37719694 -0.10591583 0.42560926 0.2319461 0.3188937 -0.30433547 0.049311984 0.18096264 0.34184036 -0.08089096 0.30749002 0.25445408 -0.30944318 0.013451181 -0.022161433 -0.2839204 0.27430683 -0.21697357 0.33925295 0.23205163 -0.38334265 0.079843104 0.3331751 -0.07477902 -0.30492646 0.23010892 0.120429695 0.12948234 -0.28499204 0.10761365 -0.49987933 0.3504012 0.11543829 0.45575336 0.1198235 -0.26835012 -0.15162115 0.023613738 0.31022343 -0.08846847 0.6010065 -0.09456694 -0.017591078 0.24424405 -0.106761776 -0.0020442316 -0.52692324 -0.65683424 -0.021982942 0.4334029 0.02564151 -0.3860173 0.13876215 0.08857757 0.373054 -0.106832765 -0.022964094 -0.57528853 0.41763398 -0.315648 -0.06256231 0.06469637 0.26488423 -0.34317058 0.11203706 0.301775 -0.48632532 -0.46122622 -0.23530163 0.13672589 0.20368245 -0.010398132 0.021171762 -0.1274577 -0.4085003 -0.2658257 0.038032815 0.1742148 -0.05321962 -0.56109256 0.6843279 0.1459561 -0.28818062 -0.5035602 -0.036426794 -0.19420621 0.71505743 0.29542503 0.13388598 0.61774033 -0.5175888 0.16318725 0.2032003 0.29360208 0.28611547
http://www.w3id.org/sounds/ontology/VibratingSolidMechanism -0.12679319 0.0075024036 -0.035571214 -0.10976692 -0.34624916 0.16010995 -0.06235987 0.05620191 -0.14744501 0.23400463 -0.1615827 0.14076875 -0.0173844 0.37578258 0.007942332 0.11753734 0.38434422 -0.31870106 -0.08679037 -0.15951519 -0.3255499 0.050839566 -0.1989719 0.1542183 0.13894467 -0.16343915 -0.14403225 0.0981655 0.27144992 0.024172267 0.1500856 -0.19937591 0.2546943 -0.10267729 0.029827671 -0.48296222 0.42761567 -0.14988296 0.26256412 0.17387378 0.11445353 -0.13031204 0.31151667 0.06540117 -0.05109111 0.13453734 -0.068862155 0.10624215 0.36593136 0.0152477715 -0.03790065 -0.4889578 -0.49214026 -0.17897625 0.354939 -0.093657196 -0.08669665 0.15571836 0.2623735 0.112638414 -0.00535783 -0.011890823 -0.39869633 0.5000096 -0.0995594 -0.049607314 -0.049983565 0.40580764 0.012758397 0.2985922 -0.045878246 -0.35993502 -0.2140494 -0.15604134 0.035810076 -0.013716014 -0.082436755 0.08787402 0.12659596 -0.15992333 -0.19788474 -0.030176667 -0.049475282 -0.011254186 -0.2346354 0.34328157 0.03658268 -0.28089687 -0.21106634 -0.016179983 0.11873042 0.49772945 0.13655591 -0.017755024 0.3482316 -0.18802781 0.08054155 0.16339666 -0.04199446 0.027699232
http://www.w3id.org/sounds/ontology/AnimateSoundSource -0.21753474 -0.016108613 0.014059906 -0.120486766 -0.32288623 0.23470679 -0.13398206 0.06307285 -0.09783493 0.26075977 -0.12821627 0.20783809 -0.03272985 0.36372784 0.007990397 0.048898004 0.20839906 -0.34131354 -0.1081497 -0.051555794 -0.16889635 0.03010518 -0.12948628 0.078539 -0.030376168 -0.28105515 -0.08232539 0.19873875 0.11530596 0.036039703 0.12084346 -0.10593213 0.21144249 -0.13571253 0.036468126 -0.46399596 0.39519572 -0.02765198 0.05582961 0.061988298 0.11432474 -0.06821688 0.36765233 0.2158231 -0.15482263 0.20735309 -0.050488986 0.012498023 0.1960915 -0.12067128 -0.16435756 -0.5055937 -0.41636035 -0.18528633 0.1794984 -0.08372423 -0.26684755 0.14648889 0.2411574 0.11399508 0.0788447 -0.16495672 -0.44474715 0.4338282 -0.08806966 -0.10118184 -0.010282399 0.30367893 -0.046844218 0.291155 -0.07328484 -0.447197 -0.2513828 -0.110167615 0.016248522 0.0989639 -0.13020657 0.01809895 0.21158561 -0.17098503 -0.23214671 -0.056451418 -0.010291724 0.026421774 -0.24149194 0.4022213 0.09459392 -0.11838712 -0.19424646 0.0230712 0.18226328 0.40190712 0.12153316 0.02555101 0.38458747 -0.15022705 0.1610703 0.11698367 0.10314203 0.12947227
solid -0.24248543 -0.1768244 -0.0137899015 0.28997773 -0.0859102 0.26749283 0.1768936 -0.2340068 0.026208792 0.04577202 -0.10866864 0.083586335 -0.18202022 0.3945889 -0.052544992 0.0025517356 0.4580486 -0.24595146 -0.039884087 0.23452477 0.046309043 -0.21960281 -0.18011166 -0.31620008 -0.07425568 -0.46015882 -0.15950556 0.14843546 -0.2685002 0.17853208 0.31303924 -0.0970494 0.2264576 -0.33021486 -0.33123332 -0.39846012 0.165083 -0.15235268 0.07136068 -0.08616695 0.05651609 0.09637571 0.37878045 0.18314524 -0.15014914 -0.011207129 -0.26675108 0.080728985 0.21744058 -0.043311983 -0.53249884 -0.5740124 -0.28679532 -0.11140433 0.0917607 -0.08096213 -0.102169774 -0.15813948 0.32388395 -0.050465167 -0.016373646 -0.46720645 -0.16306859 0.52770877 0.303095 -0.2524766 0.0863282 0.38316166 0.12633297 0.12753579 -0.2263836 -0.036881614 -0.35463637 -0.029639332 -0.21905167 0.2523803 -0.44438452 -0.0647909 0.27494666 -0.2196708 -0.18976985 0.10230405 0.13988099 -0.12165683 -0.35769874 0.3123665 0.24085233 -0.03765605 0.034152657 0.122114666 0.22987778 0.49736387 0.25305384 -0.1452139 0.60817945 0.04066288 0.15625176 -0.10803607 0.3103969 0.22849675
http://www.semanticweb.org/owl2vec#typeOf 0.16766037 -0.32993633 -0.21162553 -0.07760487 -0.5075218 0.31442642 -0.10549457 0.47179714 0.22834022 0.30128762 -0.30307463 0.015532603 0.16721341 0.32287458 -0.07017413 0.24555467 0.2459627 -0.34792843 0.02092977 -0.008861698 -0.31360433 0.24598667 -0.2347259 0.3348018 0.22339202 -0.3731195 0.09677478 0.35286462 -0.039724 -0.2802714 0.2487538 0.061482467 0.13281219 -0.28798255 0.15551345 -0.5465118 0.37017 0.08135163 0.44798788 0.09404897 -0.25175726 -0.13604347 0.043586735 0.2674974 -0.07149574 0.5500315 -0.09616788 0.059676047 0.30585834 -0.11931002 -0.021650564 -0.49600515 -0.69801056 -0.05053374 0.44737387 0.041963894 -0.36096427 0.19328316 0.09825179 0.42344743 -0.10550188 0.0016519865 -0.5852661 0.4618198 -0.26314202 -0.08956908 0.10911979 0.3047209 -0.34396827 0.12463861 0.28052646 -0.5357692 -0.4374397 -0.2823076 0.1617877 0.20077862 0.024797829 -0.0325251 -0.12662546 -0.38444638 -0.2631631 0.05159976 0.16769148 0.00048539514 -0.5798915 0.65991324 0.19004191 -0.3302008 -0.4946072 -0.051364303 -0.15722117 0.71106577 0.3370386 0.11566777 0.57538056 -0.5235778 0.17047347 0.24697645 0.27271152 0.22863504
http://www.w3id.org/sounds/ontology/Drink -0.27370727 0.09137821 0.056846045 -0.18971576 -0.3408262 0.1070478 -0.08489384 0.08927938 -0.3325202 0.12714784 -0.19740532 0.23046866 0.06222773 0.41152358 0.09898254 0.04603481 0.27616334 -0.4019253 -0.121357106 -0.04658938 -0.3472159 -0.024087863 -0.15658188 0.13205303 0.14671016 -0.23930873 -0.04665372 0.1524007 0.19815454 0.023216125 0.113295436 -0.14693734 0.05176763 0.061775032 0.008687547 -0.4995599 0.44299653 -0.24215311 0.19727291 0.0699237 0.19497733 0.01576946 0.383143 0.08228381 -0.038256373 0.12646726 -0.13230176 0.03771893 0.28908512 -0.12881035 -0.17132016 -0.52745485 -0.45678788 -0.2615982 0.40297508 -0.11307656 -0.22850372 0.2629537 0.30385852 0.12127838 0.1441149 -0.094240025 -0.361805 0.46164113 0.003068347 -0.04185118 -0.06672485 0.2410533 -0.07824397 0.17610283 -0.13571504 -0.4375898 -0.24271591 -0.18037263 0.021233227 -0.04278861 -0.15608054 0.083096385 0.12346945 -0.094700865 -0.14673969 -0.12863964 -0.11599497 0.019643506 -0.17116055 0.5291588 -0.08892671 -0.16611901 -0.21543801 -0.04646522 0.07446845 0.44067678 -0.030683624 0.029410748 0.37902534 -0.08601091 0.12378613 0.17230168 0.035390865 0.08435437
http://www.w3id.org/sounds/ontology/SoundSource -0.2963994 0.017521203 0.060254995 -0.196945 -0.34153235 0.2035714 -0.21704984 0.09932663 -0.12887824 0.3290051 -0.07456112 0.22781242 -0.055346254 0.38505498 -0.025195599 0.020419538 0.19928889 -0.41502962 -0.11135346 -0.120925955 -0.25003844 0.029986665 -0.11040247 0.12518857 -0.062943384 -0.28502926 -0.11048942 0.27302998 0.17029417 0.0427492 0.039460793 -0.110085286 0.2363753 -0.12409767 0.04328199 -0.521792 0.4577704 -0.037069794 0.008839031 0.12262002 0.11384749 -0.1364124 0.39905435 0.26405928 -0.15893902 0.267592 -0.009796287 0.022245983 0.14093058 -0.09832018 -0.18621702 -0.49406323 -0.41640174 -0.21055087 0.15525109 -0.0816479 -0.33632112 0.17612852 0.2551563 0.13958986 0.112603776 -0.14986613 -0.51000077 0.44292825 -0.15467717 -0.10472411 -0.027308362 0.3393318 -0.044281453 0.35048616 -0.07642364 -0.50376886 -0.2234542 -0.096693315 0.055280536 0.05163239 -0.0944326 0.048337493 0.27617073 -0.12952892 -0.25434652 -0.029042665 -0.088158935 0.046846565 -0.24528058 0.4284935 0.08105922 -0.09067471 -0.2666524 -0.025273088 0.22046754 0.38058308 0.091411315 -0.007444556 0.36459878 -0.14611681 0.14255728 0.11129221 0.05327635 0.13443734
http://www.w3id.org/sounds/ontology/isBodyPartOf -0.2985498 0.1224519 -0.11034579 -0.2423787 -0.3243578 0.3755925 0.015193261 0.14375496 -0.4712392 0.02114984 -0.33253634 0.1602295 0.034619108 0.31400996 0.094695136 0.07581869 0.3511502 -0.34620008 -0.3012135 0.13952114 -0.42174158 -0.008263272 -0.19539326 0.030270383 0.15817751 -0.20218757 0.09291752 0.19906913 -0.13616489 -0.03862704 0.1337485 -0.0365597 -0.19305493 0.03576815 0.14985518 -0.36212915 0.4683703 -0.21469906 0.34490928 -0.14080432 0.28278205 0.047533732 0.53982127 -0.043660454 -0.039005063 0.0711469 -0.020458592 -0.039768197 0.27320027 -0.20666708 -0.18980087 -0.590984 -0.47370544 -0.3077904 0.24265175 -0.05828798 -0.20631118 0.30599982 0.41250423 0.29788437 0.057164874 -0.17664585 -0.29045302 0.61288667 0.16009946 -0.13213749 0.015229424 0.17418967 -0.04429732 0.1946584 -0.15750962 -0.5307643 -0.2418478 -0.09270402 -0.06236546 -0.061838944 -0.2504585 0.14005557 -0.07418298 -0.08050385 -0.22511838 -0.37373477 -0.03815749 -0.031352177 -0.19729143 0.69086486 -0.1941172 -0.24384406 -0.14193036 0.19063671 0.109849036 0.41745552 -0.09795298 0.13221335 0.42601162 -0.008208411 -0.017949233 0.13462465 0.066637374 0.079500765
http://www.w3id.org/sounds/ontology/Drop -0.028683364 -0.15440327 -0.108221866 -0.12091902 -0.38336596 0.23557559 -0.05845336 0.23964508 -0.0051220874 0.21920964 -0.22798264 0.0793211 0.07713374 0.33428505 0.0032039303 0.1600502 0.25722286 -0.30037707 -0.05609924 -0.0506655 -0.23659842 0.13254721 -0.2070837 0.21358 0.18304534 -0.2797322 -0.0006537499 0.2728152 0.053287037 -0.111314535 0.15613046 -0.015715437 0.08571833 -0.1518631 0.039501388 -0.47187728 0.37872642 -0.040258814 0.2999087 0.10328846 -0.065992355 -0.0350563 0.1987551 0.19129184 -0.07056235 0.37217346 -0.085452996 0.046526413 0.25702396 -0.0671708 -0.090644486 -0.50883925 -0.5209835 -0.118617855 0.3851117 -0.042313304 -0.26430476 0.15113546 0.123954855 0.24960598 0.0045165746 -0.020898713 -0.44937104 0.43247694 -0.12515649 -0.051490773 0.04505513 0.25442466 -0.17752723 0.13785593 0.09348055 -0.44762337 -0.31259322 -0.1806339 0.06692929 0.12555987 -0.06819735 0.036306486 0.0032084573 -0.25614414 -0.24315993 -0.0527909 0.065555334 -0.04833666 -0.38293922 0.5480477 0.06677382 -0.21430372 -0.39099136 -0.036144845 -0.034847993 0.5456711 0.17177047 0.060093362 0.49437195 -0.33592576 0.12370924 0.1477492 0.15608132 0.18139529
http://www.w3id.org/sounds/ontology/ClapSound -0.24009278 0.021435218 0.005868051 -0.08910096 -0.26859236 0.19046825 -0.022389568 0.030391797 -0.20001137 0.15548441 -0.14638165 0.1583089 -0.00975564 0.34888193 0.0034601162 0.05225923 0.27287433 -0.34790194 -0.106139556 -0.018800111 -0.23889707 -0.024880327 -0.1796506 0.049896907 0.09280484 -0.24639751 -0.041225914 0.18154998 0.1235803 0.022560243 0.16054283 -0.11648666 0.06363996 -0.047705933 -0.015576574 -0.450859 0.3853854 -0.16665477 0.13100041 0.0317729 0.1563027 -0.00807953 0.34406003 0.10701162 -0.095057614 0.16405584 -0.09235237 0.0465981 0.24832456 -0.10811859 -0.17034246 -0.4718493 -0.38285697 -0.20879894 0.28618407 -0.12233807 -0.18846647 0.16963851 0.2552774 0.096351504 0.080543235 -0.14502257 -0.343217 0.46119344 0.008664584 -0.075237684 -0.027224928 0.26845545 -0.014347343 0.16621512 -0.12329769 -0.37462148 -0.27016792 -0.114985384 -0.040739696 0.03692016 -0.1696064 0.0679154 0.16034155 -0.13291754 -0.18575028 -0.064815894 -0.0053444 -0.014449577 -0.20901558 0.44169137 0.011737906 -0.16353591 -0.19286782 -0.025511837 0.11642089 0.41082132 0.081919104 -0.022921676 0.38547912 -0.08181255 0.12663957 0.12646653 0.061619084 0.10888992
http://www.w3id.org/sounds/ontology/Kick -0.21842341 0.03841475 0.011980755 -0.15045854 -0.29650322 0.13895871 -0.03287175 0.06655927 -0.1891552 0.13400003 -0.1749529 0.16498232 0.009600716 0.3338724 0.03941754 0.06879698 0.27538386 -0.3093133 -0.12756054 -0.07695375 -0.29884702 -0.007877044 -0.15073295 0.0849286 0.10499345 -0.24225254 -0.088483766 0.15977238 0.17699254 0.0169906 0.10264693 -0.15669906 0.10947894 -0.047895197 0.028521573 -0.44550982 0.39314464 -0.15192895 0.2019924 0.06650388 0.16321841 0.002341648 0.33906576 0.08347278 -0.054236867 0.15328358 -0.079225756 0.04940531 0.30369672 -0.06880216 -0.14350677 -0.46105742 -0.44093716 -0.20471537 0.33146 -0.10418947 -0.16926117 0.18774074 0.2693097 0.09864395 0.09810077 -0.08186524 -0.34777126 0.4642329 -0.035397 -0.058524344 -0.03579548 0.26143026 -0.05717663 0.17369731 -0.07300685 -0.37647137 -0.2646673 -0.15389718 -0.024962699 0.0034418826 -0.14860058 0.07502805 0.09156211 -0.13408169 -0.17751929 -0.10347291 -0.059819587 -0.0050546657 -0.18315315 0.43663374 -0.01928562 -0.1824608 -0.2173578 -0.036937878 0.091676116 0.4535781 0.046987724 0.005742132 0.38537192 -0.1276388 0.11419692 0.119265355 0.01718236 0.07915438
http://www.w3id.org/sounds/ontology/CollectiveHumanAction -0.1644554 -0.037718177 0.007012467 -0.049652822 -0.2591616 0.21054152 0.01586682 0.07942263 -0.08412203 0.14646691 -0.1391623 0.10157089 -0.0017239044 0.2989449 -0.062342998 0.07859039 0.29660022 -0.27792382 -0.08092987 -0.070243515 -0.1976259 0.025562113 -0.14257635 0.038199153 0.028577236 -0.24740739 -0.08287653 0.18032679 0.11370833 0.02428108 0.17229646 -0.1340187 0.15225159 -0.1342622 0.012825456 -0.45475987 0.3269645 -0.10787232 0.17204432 0.05978848 0.05491578 -0.069660656 0.29221022 0.121793136 -0.03130951 0.19017878 -0.06419844 0.055414848 0.24178924 -0.07120592 -0.18520874 -0.45447105 -0.38853604 -0.12256262 0.22876918 -0.061316848 -0.11980934 0.10735714 0.21793091 0.10457017 0.05944505 -0.101818696 -0.38310933 0.47541746 -0.037626855 -0.13493678 0.0028629196 0.27083403 -0.056227572 0.193351 -0.052504405 -0.31839228 -0.288627 -0.11217345 -0.04391021 0.049967628 -0.17691374 0.021914117 0.13613394 -0.16067341 -0.19112335 -0.031331345 -0.007940669 -0.0035899987 -0.23044892 0.3610692 0.05814408 -0.21982524 -0.18374483 -0.022665396 0.11796334 0.48489115 0.13895637 -0.007919882 0.34452382 -0.1306549 0.14368464 0.07854849 0.085635416 0.10362601
http://www.w3id.org/sounds/ontology/Patterned 0.07924899 -0.22850287 -0.14211997 -0.22774744 -0.41393894 0.25822017 -0.10917207 0.48957777 0.00599106 0.21794204 -0.32400814 0.009608143 0.178087 0.32209858 -0.01245669 0.2608559 0.20854613 -0.35623407 -0.09761844 -0.0131783 -0.36513075 0.19958077 -0.21838018 0.22811624 0.18627344 -0.26914522 0.13057578 0.34663445 -0.01420117 -0.27794573 0.18896064 0.045272104 0.01620752 -0.14692321 0.15099023 -0.4807093 0.473596 0.00250535 0.3966806 0.03698877 -0.22629817 -0.06692357 0.11089469 0.10675496 0.010205657 0.54913205 -0.06739427 -0.0471596 0.29797652 -0.1928978 0.027424864 -0.48240986 -0.67896104 -0.17295927 0.46276513 0.049769584 -0.27226487 0.2460823 0.037798684 0.46264842 -0.099937 -0.0036300821 -0.6321352 0.5641082 -0.243446 -0.021144293 0.06809802 0.24737573 -0.29874027 0.10768451 0.2510244 -0.5070747 -0.34856838 -0.2494949 0.119013794 0.12918214 -0.062211417 -0.015795432 -0.17600277 -0.42232057 -0.24784343 -0.12902781 0.044918403 0.042075332 -0.48307052 0.766712 0.084066905 -0.423076 -0.54988927 -0.06583552 -0.054076552 0.7245605 0.3054487 0.056827802 0.56591636 -0.52242255 0.14269878 0.2402551 0.22043598 0.22756673
http://www.w3id.org/sounds/ontology/FoodIntakeSound -0.1924162 -0.010228572 0.01589816 -0.09611341 -0.29257306 0.20556976 -0.032232165 0.07766177 -0.20766455 0.14100775 -0.1458383 0.16810335 0.0075303344 0.34867585 0.01103619 0.06451925 0.32000333 -0.3229649 -0.101713605 -0.042593148 -0.23796268 -0.0017911403 -0.14908065 0.04265904 0.08159664 -0.24187076 -0.053280015 0.13940284 0.11663546 0.028614052 0.15538055 -0.13179716 0.09485836 -0.056505233 -0.0020165867 -0.4317125 0.3951926 -0.17108677 0.17484134 0.059191555 0.13147074 -0.0011361472 0.3384267 0.088272415 -0.048696253 0.15523426 -0.08138963 0.03465328 0.25120896 -0.11645137 -0.18664281 -0.503998 -0.4252693 -0.19403201 0.3034219 -0.06899507 -0.16641614 0.19474712 0.26962173 0.14464132 0.09999642 -0.12357231 -0.37902603 0.49468067 0.021210782 -0.08449961 -0.0018123852 0.2535434 -0.041136127 0.17591652 -0.103854135 -0.3750313 -0.25543085 -0.13207115 -0.023501774 -0.0011590527 -0.18087281 0.034750417 0.113974676 -0.12359294 -0.18333024 -0.10151629 -0.045577206 -0.026152367 -0.2271156 0.43346834 0.012960657 -0.18886195 -0.19363308 0.0076767886 0.095851034 0.4486941 0.040706493 0.029337108 0.3768302 -0.08979776 0.09922424 0.097376406 0.08961352 0.10929892
http://www.w3id.org/sounds/ontology/produces -0.32483593 0.03828761 0.102666885 -0.21824928 -0.34981263 0.15475178 -0.26993546 0.06908486 -0.14929453 0.3855645 -0.08790434 0.2549592 -0.05006957 0.4181504 -0.04614339 0.049794592 0.11401537 -0.4584191 -0.14729233 -0.13950953 -0.2884938 0.008331533 -0.10840304 0.16865608 -0.07088507 -0.27933195 -0.09379897 0.26308036 0.26021042 0.08361478 -0.0064769853 -0.07463996 0.230175 -0.1316542 0.07652353 -0.5471024 0.53847647 -0.05128783 0.011965317 0.18896073 0.14054371 -0.14481339 0.39675707 0.2440269 -0.09462536 0.28570324 -0.0043782257 -0.0069187186 0.13277996 -0.1357341 -0.11595398 -0.5081067 -0.43161857 -0.1611436 0.18405469 -0.026646359 -0.35750476 0.2387276 0.20598666 0.20282535 0.16809571 -0.10985201 -0.5660965 0.4936974 -0.21148904 -0.08056154 0.021460451 0.33899078 -0.070902005 0.3790312 -0.10834164 -0.53071934 -0.27372 -0.035872705 0.07875953 0.053474613 -0.067680344 0.037136476 0.26485804 -0.16034667 -0.24673012 -0.039712265 -0.06671397 0.0048636748 -0.17312717 0.42947558 0.10033655 -0.1316484 -0.29529992 -0.08665078 0.20939156 0.4231897 0.08791291 0.029980106 0.36960387 -0.1123745 0.11019909 0.13560233 0.07117064 0.19433276
http://www.w3id.org/sounds/ontology/Friction -0.18472908 0.0020213109 0.044377055 -0.12973689 -0.31166586 0.12503289 -0.03532488 0.043099593 -0.15389402 0.17072734 -0.18079646 0.16739638 0.011320075 0.3581256 0.0237935 0.099967584 0.31444472 -0.30181423 -0.10210367 -0.08700991 -0.2608688 0.024672406 -0.16134417 0.097626634 0.10880494 -0.1957462 -0.10781076 0.14205095 0.19595389 0.06677479 0.15656702 -0.1519113 0.17940433 -0.049622606 0.03614216 -0.4987849 0.36886054 -0.16692062 0.22210239 0.10936382 0.13810799 -0.03724453 0.33820754 0.101028554 -0.047286104 0.11793563 -0.07617631 0.046041634 0.32139564 -0.059381917 -0.11811156 -0.48497492 -0.42971277 -0.22985272 0.35155088 -0.12947504 -0.1523179 0.18705158 0.30634478 0.08561345 0.08923909 -0.10552794 -0.33780682 0.46919256 -0.04965768 -0.07693304 -0.045906927 0.29409322 -0.026611535 0.21935757 -0.10336207 -0.36856094 -0.23746379 -0.17290573 0.0034630185 -0.0066667623 -0.109166995 0.091736995 0.09691531 -0.13098988 -0.19076015 -0.076706916 -0.041372545 -0.009015451 -0.19463193 0.4337603 -0.021749374 -0.21101925 -0.21054006 -0.020433616 0.13709427 0.45360038 0.050131902 -0.00091438775 0.38683704 -0.09541108 0.076346174 0.10448522 -0.0034656175 0.070223816
http://www.w3id.org/sounds/ontology/Person -0.21407697 -0.033275597 0.014014218 -0.021696694 -0.25746265 0.21716277 -0.04353949 -0.019947972 -0.110195994 0.15398976 -0.1445968 0.15596981 -0.038273852 0.3420577 -0.02283018 0.087487064 0.29774076 -0.3017246 -0.09198769 0.0216177 -0.1598085 -0.028600795 -0.17857239 0.0068045496 0.0044898232 -0.26175657 -0.08602702 0.14343835 0.041389037 0.09106993 0.17743455 -0.09270502 0.17474988 -0.1224209 -0.08216539 -0.43233305 0.3310092 -0.094313666 0.104977176 0.03739916 0.08046955 -0.018204082 0.34833995 0.13080312 -0.11387195 0.13098888 -0.06753204 0.049538583 0.2077243 -0.06771681 -0.22223657 -0.4933989 -0.3770508 -0.14701182 0.19669396 -0.07778415 -0.18433204 0.105048634 0.23876488 0.0685238 0.03338426 -0.17951319 -0.34455326 0.48824728 0.029428061 -0.12967755 0.03078573 0.3267198 0.0020571463 0.2314672 -0.103521734 -0.29109657 -0.24397314 -0.08935694 -0.055493426 0.097132206 -0.17510605 0.04234836 0.17228684 -0.1568277 -0.19575432 -0.019869372 0.0025179544 -0.019707492 -0.25857002 0.37989265 0.06822154 -0.14765735 -0.15400594 0.017374529 0.14497113 0.44836652 0.1350107 -0.015863422 0.41467938 -0.066079125 0.11542096 0.06461457 0.095432684 0.1258621
http://www.w3id.org/sounds/ontology/AeroDynamicMechanism -0.1400522 -0.0141925225 -0.02466317 -0.109934285 -0.34541884 0.18207482 -0.032070387 -0.0011498336 -0.15720631 0.2506986 -0.14279269 0.12573421 -0.01316179 0.38152462 0.02774662 0.068652205 0.3871714 -0.33048257 -0.10466998 -0.10479892 -0.29170388 0.05640305 -0.19524288 0.103193104 0.16024593 -0.19398326 -0.15146573 0.112126045 0.24901016 0.052803837 0.16517112 -0.18324973 0.19976042 -0.09212375 -0.017541304 -0.48705834 0.44320434 -0.16784607 0.24626917 0.14000233 0.11979842 -0.09730687 0.2964341 0.046462063 -0.06538661 0.123196684 -0.10690947 0.08090763 0.32684273 -0.0032491058 -0.09472907 -0.49353972 -0.41642094 -0.18150717 0.33844003 -0.08944136 -0.09427086 0.1431147 0.2677412 0.06034396 -0.008224754 -0.06974255 -0.36206314 0.51229715 -0.043841407 -0.054138802 -0.030612536 0.38850883 0.019871747 0.28461593 -0.08209353 -0.37529343 -0.2352838 -0.14279334 -0.013331954 0.00561083 -0.11372978 0.11832621 0.12981458 -0.121678375 -0.18377005 -0.052130003 -0.007230966 -0.03969098 -0.24663106 0.35822448 0.02399201 -0.25192988 -0.1874904 0.009927438 0.13148649 0.47485548 0.103860475 -0.01571845 0.34594372 -0.1194692 0.088747315 0.1252723 -0.019816104 0.05220043
http://www.w3id.org/sounds/ontology/Punch -0.22200336 0.019669073 -0.005014984 -0.18402447 -0.27914423 0.20671938 -0.026599478 0.061214846 -0.23545283 0.09026226 -0.19483964 0.13034686 0.0135063175 0.33358923 0.062009502 0.060206007 0.31662095 -0.29968795 -0.16604073 -0.038359597 -0.3350099 -0.005574242 -0.1378396 0.08195601 0.12389712 -0.21195537 -0.042284306 0.1790143 0.09661691 -0.016474584 0.12232118 -0.13387054 0.046222866 -0.040993944 0.048532955 -0.44829893 0.41736332 -0.17619377 0.23589405 0.028858997 0.2012897 -0.00012904438 0.41321275 0.06838477 -0.034805786 0.13185546 -0.07514512 0.010070719 0.3392966 -0.09668793 -0.14918773 -0.4854496 -0.45848903 -0.23477449 0.31872544 -0.08517749 -0.18053204 0.20665893 0.33787656 0.13496193 0.076328926 -0.11846286 -0.35953236 0.51205856 0.04799131 -0.077392764 0.005960648 0.26795527 -0.08407374 0.18631166 -0.09791029 -0.4544355 -0.25720385 -0.17077596 -0.028451325 0.012595507 -0.15756793 0.08961145 0.049264394 -0.10280706 -0.16737467 -0.19773172 -0.077068746 -0.010558014 -0.18771775 0.47802988 -0.05802813 -0.20838591 -0.209327 0.040395435 0.13968386 0.45446986 0.015490604 0.026691487 0.39627996 -0.10496497 0.07754523 0.08887691 0.024761148 0.08285604
http://www.w3id.org/sounds/ontology/Walk -0.012499419 -0.12572105 -0.11445059 -0.13964371 -0.37857622 0.27810067 -0.04561487 0.30907914 -0.014106662 0.19482398 -0.25724936 0.0696538 0.09133354 0.32051903 -0.03582918 0.20516206 0.25033295 -0.32099888 -0.05698272 -0.019055966 -0.28103602 0.15187995 -0.19196126 0.18340048 0.17971417 -0.25478584 0.019340249 0.28738376 0.044280086 -0.14519632 0.17309943 0.011459331 0.064927615 -0.14321354 0.091279306 -0.45007885 0.41618896 0.003174342 0.31675684 0.06160945 -0.09363895 -0.06428801 0.18645613 0.16842163 -0.047855195 0.4009063 -0.07469693 -0.002730816 0.2620187 -0.11340623 -0.06369337 -0.49099344 -0.5379583 -0.11817491 0.37087694 -0.020344334 -0.2469194 0.17439945 0.11114325 0.30660677 -0.0036548441 -0.028701171 -0.49599233 0.502383 -0.16308226 -0.07339601 0.038795277 0.24980277 -0.18064305 0.15287519 0.13743432 -0.4240355 -0.35018694 -0.19699225 0.046134543 0.11062882 -0.08007592 0.024853576 -0.029249968 -0.29372746 -0.23316824 -0.08507953 0.04649975 -0.029712453 -0.38759765 0.60499066 0.07142217 -0.27457657 -0.40375784 -0.055784125 -0.03672744 0.60299075 0.18954211 0.058895245 0.5089212 -0.33887327 0.14527476 0.15602848 0.1914479 0.17749393
http://www.w3id.org/sounds/ontology/VocalSound -0.162049 -0.03886702 0.017370433 -0.06792203 -0.25120255 0.19631132 -0.018724203 0.049821664 -0.105129436 0.1359137 -0.14396775 0.12800585 -0.0087263 0.32316676 -0.030911565 0.08277577 0.2741107 -0.2800545 -0.0857417 -0.0406976 -0.20183188 0.012364479 -0.16393752 0.02131986 0.04377128 -0.25524795 -0.097770475 0.16297515 0.11075077 0.02838618 0.1603172 -0.10207286 0.14155003 -0.11298239 -0.016211942 -0.42603195 0.34719718 -0.1014685 0.13777658 0.060106065 0.08782721 -0.027669169 0.28551924 0.1206347 -0.06612259 0.17150687 -0.064826585 0.047499057 0.2381675 -0.072934106 -0.17929125 -0.46215504 -0.3964644 -0.14292747 0.2540845 -0.08727271 -0.14414354 0.13078761 0.21047655 0.11850526 0.086964294 -0.13277406 -0.36790147 0.49029005 -0.02188095 -0.092244506 0.013294168 0.26812327 -0.047146488 0.19111861 -0.05737175 -0.3107475 -0.2780966 -0.100474566 -0.033484455 0.026607182 -0.16525163 0.03340854 0.14000289 -0.14838268 -0.19408035 -0.058807135 -0.013182063 -0.011315211 -0.24105099 0.37082875 0.06133044 -0.18586995 -0.18469936 -0.010177856 0.10119556 0.44500455 0.115469694 -0.021317935 0.36902604 -0.10288744 0.11531996 0.08019145 0.07550649 0.102668725
http://www.w3id.org/sounds/ontology/Deformation -0.16507761 -0.03366267 0.013354878 -0.099638216 -0.30281997 0.15682091 -0.023551896 0.036593124 -0.10678591 0.15514508 -0.16132435 0.12633903 -0.006541751 0.3448211 0.0063603874 0.09695689 0.31748912 -0.27435598 -0.08766263 -0.08158765 -0.22090411 0.014859139 -0.14439116 0.05822924 0.11523869 -0.21972604 -0.11961848 0.11017439 0.1884051 0.04697655 0.14384125 -0.15094681 0.21612304 -0.101671286 0.00020476672 -0.48917997 0.34995043 -0.13150552 0.22538042 0.110927016 0.10124636 -0.04881837 0.29866052 0.10759745 -0.060234815 0.15119083 -0.07234154 0.036285892 0.29314086 -0.042214707 -0.14285843 -0.46434543 -0.42576122 -0.17872983 0.29352137 -0.10781984 -0.1250391 0.15848733 0.27038434 0.09066859 0.08234325 -0.091223285 -0.36905062 0.48874822 -0.051626842 -0.08570759 -0.016126204 0.3093329 -0.041180376 0.22025822 -0.08602985 -0.34910825 -0.24196525 -0.1388607 0.0007315428 -0.010720672 -0.12129161 0.08909664 0.10585465 -0.14350435 -0.18271753 -0.04404063 -0.026108023 -0.0024042022 -0.20872694 0.38625935 0.004789429 -0.21073148 -0.21511237 -0.0022195352 0.15555027 0.4752573 0.08083413 -0.00034958316 0.37103292 -0.116242446 0.09325166 0.08679458 0.01605113 0.061583485
http://www.w3id.org/sounds/ontology/Gas -0.058392342 -0.07212383 -0.01782812 -0.026480567 -0.27642682 0.222648 -0.022069369 0.049440574 -0.06948257 0.30048987 -0.13808088 0.085886516 -0.056225386 0.38095307 -0.05114363 0.10346575 0.3980495 -0.2734614 -0.057980843 -0.1618713 -0.23567763 0.06434545 -0.19040959 0.11086199 0.18735465 -0.1483938 -0.19094773 0.07503276 0.23466316 0.05965541 0.18761161 -0.18259344 0.2650237 -0.16562374 -0.037081547 -0.48773938 0.38437387 -0.09258038 0.25879118 0.15173475 0.029500829 -0.16364972 0.25547606 0.09134521 -0.08492186 0.15142244 -0.053977966 0.06543899 0.32953352 0.057522677 -0.08658589 -0.511493 -0.4405117 -0.17756656 0.2979145 -0.016068589 -0.10466685 0.04842779 0.26477033 0.08661972 -0.04456058 0.00074704946 -0.43430734 0.48407042 -0.11121931 -0.08906148 0.01124585 0.41415495 -0.01579283 0.34186292 -0.045795836 -0.36188734 -0.22271976 -0.13075987 0.002514931 0.0344284 -0.07562176 0.12079047 0.12685893 -0.16228418 -0.1937323 -0.027774995 0.020096261 0.023629066 -0.2576639 0.2550335 0.066895336 -0.2754261 -0.1842253 0.09432618 0.1790562 0.51447165 0.1952168 -0.04212336 0.31411344 -0.15545186 0.1088077 0.08502094 -0.023861663 0.02085505
http://www.w3id.org/sounds/ontology/Run -0.10208735 -0.053458404 -0.021029675 -0.12434037 -0.3267117 0.22671218 -0.05191209 0.1953939 -0.11286153 0.18714444 -0.20281783 0.1312963 0.02455946 0.33873856 -0.024263358 0.16017088 0.27369758 -0.32112414 -0.08598666 -0.0478162 -0.2965792 0.09012215 -0.16556375 0.11926545 0.13969997 -0.2115879 -0.056750033 0.19604655 0.12795955 -0.06628953 0.12637447 -0.08302607 0.11000976 -0.09886359 0.0756381 -0.4477766 0.41245002 -0.06888321 0.2666143 0.066524 0.026496697 -0.08090226 0.2500845 0.11574 -0.058212575 0.2652801 -0.07093455 0.030969117 0.25566584 -0.11411115 -0.08802259 -0.46716666 -0.491693 -0.15259449 0.3467408 -0.032422855 -0.18259352 0.1598336 0.17140809 0.21587482 0.044212513 -0.047883015 -0.42903927 0.49761137 -0.1199065 -0.075832814 -0.0032715441 0.25830427 -0.11244349 0.20033133 0.042999167 -0.38838747 -0.28497916 -0.1704639 0.0060599316 0.03579922 -0.1240206 0.035648227 0.050585333 -0.23234472 -0.2100576 -0.08999645 -0.009373053 -0.004728378 -0.25597492 0.48160258 0.015346312 -0.25286347 -0.27429464 -0.044770423 0.051829167 0.532063 0.13568981 0.022900539 0.41388324 -0.24877413 0.13691302 0.1472314 0.113323286 0.11605917
http://www.w3id.org/sounds/ontology/Applaud -0.20743842 -0.020212743 0.003329479 -0.076403216 -0.265805 0.20798953 -0.006939642 0.058853123 -0.15649123 0.12433732 -0.17105393 0.1423017 -0.012154219 0.35756168 -0.012021206 0.09857188 0.29193917 -0.33016524 -0.11577283 -0.043086946 -0.22872323 -0.00010961498 -0.15779246 0.036542095 0.049294665 -0.23884939 -0.058453042 0.15960117 0.144794 0.031085733 0.14542535 -0.14304826 0.10987831 -0.08310168 0.00033464722 -0.45277458 0.3601781 -0.14460805 0.14718449 0.047947586 0.12053757 -0.013965404 0.32698017 0.09436978 -0.041261964 0.16594675 -0.06251625 0.03805001 0.26978192 -0.105285846 -0.16774851 -0.47905168 -0.39284012 -0.19176416 0.28355744 -0.11463294 -0.14493747 0.15210702 0.26157504 0.111511074 0.08586995 -0.13949393 -0.3539199 0.47649696 -0.031071167 -0.09280735 -0.0120535 0.27129662 -0.058990628 0.17925045 -0.0832024 -0.36172214 -0.2740011 -0.14236434 -0.048882686 0.034412067 -0.18996958 0.07298349 0.12692736 -0.1254731 -0.16455123 -0.046384584 -0.03233452 -0.020358209 -0.21073179 0.396078 0.031427093 -0.18895003 -0.21636096 -0.025244713 0.10547733 0.43783924 0.09371867 -0.03352436 0.3879729 -0.1172731 0.12820596 0.0906963 0.057069715 0.09807373
http://www.w3id.org/sounds/ontology/InanimateSoundSource -0.21133924 -0.027115455 0.013806434 -0.08263014 -0.25909227 0.22735809 -0.08541151 0.017777164 -0.09408146 0.2278276 -0.11063099 0.14931539 -0.05975197 0.3469464 -0.027589248 0.05253129 0.24466121 -0.33780256 -0.11244669 -0.064976975 -0.20242555 -0.014118462 -0.11210256 0.03748371 -0.031009717 -0.25006694 -0.11157714 0.17815551 0.120392226 0.06660206 0.10658527 -0.09189463 0.21517473 -0.16993663 0.016720116 -0.47698906 0.4097902 -0.08851507 0.09487793 0.10344303 0.10905976 -0.09381986 0.35509688 0.18050928 -0.088666484 0.18558168 -0.054614384 0.051839955 0.2126477 -0.070977174 -0.1895352 -0.47008494 -0.40488616 -0.1273795 0.19905466 -0.044666473 -0.20576526 0.12483123 0.23285668 0.15319718 0.09134843 -0.14959753 -0.44179097 0.47946993 -0.065896526 -0.11408 0.0060651274 0.3160569 -0.032335598 0.25297135 -0.11091632 -0.37622106 -0.2622599 -0.071864985 0.0059307977 0.070705704 -0.16603881 0.026538253 0.16707383 -0.14596556 -0.17686479 -0.03466243 -0.03273158 0.0016802624 -0.2077327 0.34700695 0.10985593 -0.13696814 -0.18983333 -0.009537154 0.16126327 0.43593594 0.12968665 -0.018688628 0.37524453 -0.123571634 0.121671654 0.06914414 0.08659991 0.1484617
http://www.w3id.org/sounds/ontology/isAcousticsOf -0.049390595 -0.09986192 -0.12082284 -0.17625305 -0.43804374 0.28430825 -0.08071449 0.3715815 -0.028527278 0.22584958 -0.3019182 0.114491895 0.11465191 0.31632826 -0.052528918 0.2822959 0.19778436 -0.37778026 -0.10161692 0.0010927689 -0.37001744 0.21397398 -0.15023285 0.22736028 0.20485064 -0.30209884 0.0407225 0.30952558 0.01886817 -0.23973294 0.1267395 0.070450656 0.041712698 -0.14426851 0.14649585 -0.45612136 0.4756026 0.041479386 0.37042823 0.010139634 -0.07111193 -0.118977815 0.13665956 0.16565298 -0.030930225 0.4478163 -0.012395891 -0.059701286 0.23474252 -0.23610803 0.015837388 -0.48130283 -0.62146544 -0.13915817 0.4024338 -0.0054004407 -0.30933324 0.19656345 0.1520302 0.3241716 -0.040699754 -0.056159284 -0.54447347 0.5036079 -0.24099012 -0.037285723 -0.024380429 0.22665678 -0.24424289 0.15431753 0.21385118 -0.44953153 -0.38704377 -0.22544672 0.012020054 0.09433382 -0.12061725 -0.029265372 -0.05593782 -0.3802479 -0.24472395 -0.12126181 0.05485786 0.028085649 -0.3763613 0.6843926 0.025724523 -0.3346256 -0.45691058 -0.092064485 -0.07890181 0.6172784 0.18135345 0.09908513 0.47878736 -0.380351 0.14945623 0.21271504 0.18967138 0.24847344
http://www.w3id.org/sounds/ontology/Explosion -0.23741028 -0.008331067 0.011619351 -0.07468735 -0.25776947 0.15540823 -0.030568358 -0.015490077 -0.19399023 0.16420567 -0.14585428 0.14965129 -0.0071295723 0.37212798 0.023434645 0.067573376 0.3120071 -0.30368018 -0.10671749 -0.010035649 -0.24139737 -0.045650706 -0.16654506 0.06553812 0.13062166 -0.24589401 -0.08641266 0.12312001 0.11440717 0.07406597 0.15170623 -0.15109824 0.12187257 -0.05088477 -0.047119558 -0.4537489 0.3795654 -0.19254826 0.17527997 0.05402138 0.15164135 0.018382773 0.3561166 0.112737626 -0.08651701 0.11559798 -0.113158315 0.058476444 0.28748083 -0.03693495 -0.18784353 -0.49394566 -0.41208258 -0.21974543 0.31149778 -0.110723674 -0.16237018 0.15526812 0.2967075 0.08505285 0.07832483 -0.13608384 -0.2954411 0.4832453 0.017019551 -0.08344769 -0.04207395 0.30615348 -0.012357969 0.1807457 -0.14190553 -0.35501608 -0.26031446 -0.13987502 -0.042054463 0.06113852 -0.13850325 0.10586577 0.11898751 -0.11361159 -0.16402172 -0.07734832 -0.044686712 -0.014719337 -0.19671664 0.37552002 -0.0272914 -0.14693849 -0.14748727 0.035745215 0.14071374 0.41640806 0.06449701 -0.037747614 0.38473722 -0.082467526 0.11436588 0.08789795 0.024851518 0.07152096
